1370 100
</s> -0.0082994 0.0078322 -0.0062062 -0.0020398 0.0048702 0.0012078 0.0061913 0.00023425 0.0099017 0.0093322 -0.001479 0.00306 0.0092307 0.0071597 -0.0041195 -0.0017071 0.00029786 0.0057957 0.00088546 -0.0081274 -0.0013548 0.0068985 0.0054569 -0.0061628 0.0056073 -0.0063731 0.0015828 -0.0037174 -0.0017603 0.0098461 -0.0067216 -0.003303 -0.0084756 -0.0065095 -0.009254 -0.0006517 0.0034823 -0.0086659 -0.0022043 -0.006692 0.0098161 0.0074128 0.0034531 0.0017541 -0.0048997 0.0018609 -0.0045656 -0.0045904 -0.0080814 0.0026511 -0.0069745 0.0089772 -0.0091479 0.0047018 -0.00069006 -0.0055492 0.0014297 0.0020914 0.00396 0.0032937 -0.006527 0.0050299 0.0064983 0.0050619 -0.003619 0.00065102 -0.0070489 0.0058526 0.0082506 0.0058876 -0.0098118 0.00020106 -0.0040881 0.0011984 8.345e-05 -0.0037997 0.0096516 0.0092891 -0.0010287 -0.0039297 -0.0088758 0.0060384 0.0096762 -0.0089787 -0.0052039 -0.007906 0.00069594 0.00042814 -0.0034004 -0.0036472 0.0095572 0.0047017 0.0090723 -0.0090106 0.0014508 -0.0087831 0.0062326 0.0095837 -0.0054835 -0.0018726 
tea__label__department_store 0.0023809 0.0050911 0.0083198 -0.0092702 0.0066115 0.0080729 -0.0064802 0.0013357 -0.0034364 -0.0021086 -0.00070896 -0.0063346 -0.00485 0.002211 -0.0060699 -0.0071741 0.0033869 0.0060367 -0.0068821 -0.00057144 -0.0048854 0.0098796 0.0039752 0.006947 -0.0086124 -0.0061643 -0.0098371 -0.0012069 -0.0022077 -0.0072869 -0.0050154 -0.00077216 0.0039678 -0.0058629 -0.0063548 -0.0021121 -0.0071508 0.004313 -0.00053761 -0.0027656 -0.0099938 0.0094422 -0.0051481 0.0030856 0.008804 0.0019251 0.0080772 -0.0033694 -0.0039191 0.003508 -0.0010043 -0.0018194 0.0023661 0.0048901 -0.0090531 0.0035207 -0.009636 0.0006935 0.0087635 -0.0024391 -0.00015379 0.003515 0.0056838 0.0078736 0.0045424 -0.0035697 -0.0070953 -0.0052563 -0.0057615 -0.0056899 0.0015635 0.0050563 0.0058047 -0.0073312 -0.0023909 -0.002529 -0.0039096 0.002896 0.0064536 0.0056558 0.00048762 -0.0058168 0.0026805 0.0027913 0.0047789 0.0036071 -0.0020119 -0.0098583 -0.004743 0.007278 0.002884 0.0024876 0.0025207 0.0017913 0.0093301 0.0023093 -0.0006344 0.0024203 -0.0068241 -0.0071501 
pen__label__book_store 0.0073002 -0.0080644 -0.00091569 -0.003485 0.00028719 -0.007327 -0.008605 -0.0094093 0.009671 0.009174 -0.0099597 -0.0024112 -0.0018852 -0.0059806 -0.0028765 0.004693 0.0025043 -0.0028642 -0.0076577 0.0032088 0.0070534 -0.0065366 -0.0064037 0.0026732 -0.00039519 -0.0013741 0.00508 -0.0094213 -0.0083591 0.0021604 0.0030248 0.0070816 -0.0044662 0.0030187 -0.008573 -0.0071531 -0.0074825 0.0089148 0.0087306 0.0083694 -0.0077171 0.0046451 0.0047752 -3.5331e-05 0.003767 0.0046052 0.0081475 0.0076711 0.0061019 0.0073394 -0.0015933 -0.00038804 0.0054274 -0.0056624 -0.009692 0.0079614 0.0018641 -0.0082898 -0.0066864 -0.0042047 0.0097475 0.0085032 0.0067813 0.0066314 -0.0063221 0.0031426 -0.005556 -0.0022128 0.0040172 -0.0089069 0.0072097 0.0035155 0.0034168 -0.0097881 -0.0090809 0.0032674 0.0088164 -0.0038673 0.009037 -0.0078268 0.0086677 -0.0025108 -0.007024 -0.0051334 -0.0021311 -0.0068712 -0.0023142 0.009506 0.0065208 -0.0036177 -0.0063032 -0.00055765 0.0068699 -0.0031134 0.003305 -0.0013119 -0.0021336 0.0052528 0.005876 0.0088221 
oil__label__department_store 0.00033153 0.0092646 -0.0061244 -0.0034091 0.00081343 0.007996 -0.0059688 -0.00042004 0.0060645 0.0064716 -0.0042152 0.0089361 -0.0072388 0.0043433 0.0053392 -0.0056035 -0.0067743 -0.0077659 0.0077767 0.0030341 0.0084085 0.0085848 -0.00028876 0.0013793 -0.0070714 0.0047779 0.0078365 -0.0023217 -0.0092295 -0.0049535 0.006616 0.005309 -0.00058965 0.0084707 -0.0019095 0.0078403 0.0021618 -0.0040071 -0.0017528 0.0042565 0.0021559 -0.00040583 -0.0039352 -0.0067791 -0.00083716 -0.004417 0.0072904 -0.0012118 0.0045595 0.0065555 -0.009475 -0.0058944 0.0014731 -0.0067344 -0.0018939 -0.0052861 -0.00029508 0.0027497 0.0043938 0.00068013 -0.0081757 0.0026546 0.0031046 -0.0083727 -0.0069255 0.0023471 0.00070956 -0.0053279 -0.0013864 -0.0041279 0.0086475 0.0025931 0.00055256 0.0040448 -0.00011339 0.0083995 0.004759 0.0092638 0.0066348 -0.0076446 0.0010454 0.0031572 0.0080693 0.0053171 0.0095914 1.4766e-05 -0.0012068 0.0075454 -0.0092524 -0.0088355 0.0011656 -0.0060032 0.00093007 0.0031374 -0.0060859 -0.0039807 0.00037229 0.0043529 -0.0024126 0.0023096 
cake__label__bakery -0.0042872 0.0049492 0.00023895 0.001535 0.0094186 0.0092695 0.0045165 -0.0094335 0.0053928 0.0042605 -0.00039422 -0.0047184 -0.0047514 0.0026926 0.0087676 0.00080663 0.0028205 -0.0022419 -0.005804 0.0089806 0.0082756 -0.0029889 -0.0044892 -0.0092173 0.0029758 0.0038114 0.0092524 0.0036651 0.0073377 0.0069513 0.0054014 -0.0088516 -0.0079123 -0.0018072 0.0009623 0.0070196 -0.0090765 0.0093226 0.0057762 0.00073796 -0.003743 -0.0024548 0.0075886 0.0093918 0.0046947 -0.0099782 -0.00086449 0.0087701 -0.0019331 -0.0030699 -0.0051478 0.005289 0.0043578 0.00033211 0.0094413 0.0072994 -0.0051596 0.0050533 -0.0095156 0.0092161 0.0029707 0.0017699 -0.0044067 -0.0011853 0.0072712 0.0053685 -0.0045749 -0.0088178 -0.0056678 0.004159 -0.0041343 -0.00093925 -0.0073995 0.0069677 -0.0049658 -0.0042066 -0.0068669 -0.0097507 0.004551 -0.0024542 -0.0078216 0.0019494 0.00075327 0.0034025 -0.00068269 -0.0030147 0.0025224 0.0055427 -0.0045275 0.0074643 0.0056054 0.00076627 0.0090259 -0.00057944 0.0023324 0.0076494 -0.00044891 -0.0088035 -0.0063619 -0.0060029 
sugar__label__department_store 0.0093382 0.0050285 0.0061441 -0.0044929 0.0050778 0.0035642 -0.0079238 -0.0027859 -0.0085211 0.0093904 5.6174e-05 0.003893 -0.0052387 -0.001508 -0.0064464 0.0039624 -0.0065113 -0.0082928 0.0073673 -0.0065687 -0.0071259 0.001911 0.0064022 -0.0029804 0.0025327 0.0064298 -5.2343e-05 -0.0066281 -0.0082948 -0.006595 -0.0069024 0.0068085 -0.0046783 -0.001129 0.0039125 0.0062595 -0.0072008 -0.0050635 -0.0083382 0.0089455 -0.0062564 -0.00037638 -0.004363 0.0032404 0.0078003 -0.0030969 -0.0029577 -0.0098866 -0.0051986 0.0081004 -0.0057566 -0.0084427 -0.0098062 0.0064235 0.0042563 0.0025607 0.0019246 -0.00047293 0.00049075 -0.0023786 -0.0084992 -0.0037941 0.0085165 -0.0037147 0.0048637 0.0026549 -0.0097249 -0.0063729 -0.0052188 0.0076608 -0.0021315 0.0066125 0.0096955 -0.0098655 -0.0032507 -0.0023601 0.0030278 -0.0077325 -0.0061215 -0.0034141 0.0052393 0.0052209 0.0025854 0.0099564 0.0066025 -0.0013577 -0.0093242 0.0013795 -0.0087711 0.0096528 -0.0011533 -0.0016749 -0.0082017 0.0021074 0.00041497 0.00016118 -0.0086028 -0.00061344 -0.0059502 -0.0077279 
lamp__label__electronics_store 0.0072974 -0.00061502 0.0086581 -0.0083212 -0.0038011 0.0038694 0.0042967 -0.0016427 0.00089292 0.00052181 0.0005893 0.0059737 -0.0098456 -0.0094337 -0.0051636 0.0084129 -0.0017206 -0.0022603 0.00056159 0.0049855 0.0076153 0.0093124 0.0018168 -0.0046261 0.0019716 0.0054643 -0.0055927 -0.00074247 0.00046465 0.0092547 -0.0065926 -0.0099794 -0.0061194 0.0018201 0.0038752 0.0060365 0.0045043 0.0035375 -0.00012701 0.0010276 -0.0040407 0.0066112 0.0052573 -0.0049567 0.0076298 -0.0061255 0.0095607 -0.0076382 -0.00022077 -0.006069 0.005096 0.0063989 -0.0057859 0.00023586 0.0048217 -0.0033983 -0.0012645 0.0031208 0.008119 -0.0019336 -0.00044931 0.0064319 -0.0092859 -0.0091373 -0.0060224 0.0059611 -0.0098981 0.0040348 -0.00094949 0.00998 -0.0079224 0.0021378 -0.0052959 -0.0028871 0.0013653 0.00095666 -0.00014716 -0.0079541 -0.0078288 -0.0030585 0.0064702 0.0077296 0.0041478 -0.0063855 0.0069757 -0.0052237 0.0077747 0.0053639 0.0090062 0.00027166 -0.001503 -0.0047207 -0.0031083 -0.00094504 -0.0066415 -0.0080251 -0.0020138 -0.0039749 0.0081574 -0.0093557 
up__label__jewelry_store -0.0066187 -0.0035493 -0.008292 -0.0066122 0.0085414 -0.0026541 -0.004087 0.0011163 0.0009674 -0.0066985 0.0034774 -0.0086175 0.00012575 0.0093116 0.0063334 -0.001247 -0.0052261 0.00097585 0.0021886 0.0049337 0.0013616 -0.0036454 -0.0067181 0.0027525 -0.0056239 -0.0058188 -0.0046488 0.0052039 -0.0046475 0.0022529 -0.00078014 0.0075115 0.0093065 0.0041897 -0.0093741 0.0050369 0.0080078 -0.0090036 0.0081194 0.0023731 0.0051395 0.0056185 0.00018597 0.0066773 0.0049658 0.0054198 0.0076159 0.0076821 0.0062203 0.0096415 -0.0064634 -0.00060299 0.005522 0.0084573 0.0024248 -0.0017572 0.00041906 0.0010379 0.0057769 -0.0072289 -0.0010712 -0.0080287 0.0093512 -0.0088483 -0.006509 -0.0073787 0.0028335 -0.0025166 -0.008634 -0.0048353 -0.0060166 0.0058112 -0.0087027 0.0010801 0.0083306 0.0085415 -0.0061719 0.0066709 -0.0045218 -0.0029395 -0.0023627 -0.0041563 0.0076554 0.0080474 0.00086554 0.0091201 -0.00084149 0.0044269 0.00071934 -0.0031774 0.0095431 -0.0034325 -0.0091607 -0.0045775 -0.0099208 -0.0058966 -0.0032643 -0.0097831 0.0069941 -0.0028284 
coffee__label__department_store 0.0060502 -0.0055309 0.0084047 -0.0035731 0.007347 -0.0098137 -0.0019446 0.0026885 -0.0084676 -0.0035552 -0.0087277 -0.0026387 -0.0039515 0.0097887 0.0041351 -0.0069408 0.0015442 0.0051602 0.0084607 -0.00073321 -0.0087374 -0.0027432 0.0034289 -0.0059141 -0.00038112 -0.0034949 0.0090857 -0.0090606 0.0088007 0.0052477 0.0018559 0.0097892 0.0049209 -0.0022505 -0.0069706 0.0024729 0.0086265 0.0040455 0.0016136 0.0096099 -0.0084643 -0.0096362 0.0095637 0.0070668 0.0074744 -0.0080099 0.0037428 0.005153 -0.0030401 0.0098937 -0.0036451 0.0046805 -0.0065133 0.0073877 -0.0016619 0.007273 -0.00082853 -0.0092558 -0.0042088 0.0050648 -0.0026929 0.0015641 0.0060393 0.0098763 -0.0026547 -0.0068176 0.0086986 -0.0046447 -0.0048693 -0.0033492 0.0035152 -0.0088342 0.0022016 0.0083598 0.0092237 0.0074214 -0.0064509 0.006061 0.0084922 0.0095707 -0.0015806 -0.0030706 -0.0018924 -0.0076587 0.0088486 0.0068738 0.0052149 0.0024175 0.00026037 0.0022308 -0.0012212 -0.0048505 0.0084905 0.0062936 -0.0046855 -0.0022889 -0.0024674 0.0094555 0.0075599 -0.0035773 
ink__label__book_store -0.0070399 -0.00075956 0.0018423 0.0069643 -0.0015798 0.0069665 0.0046395 0.00098005 -0.0041748 -0.0069285 -0.0070863 -0.0049064 0.0065305 -0.0095473 -0.0075531 -0.0061207 -0.004048 -0.0098831 0.0025249 -0.0037983 -0.0044671 -0.0029068 0.0024086 -0.0041031 -0.0086485 -0.00025032 0.0070207 -0.0077349 0.005561 -0.0068571 0.0025965 -0.0070809 0.0044221 -0.0054114 -0.0041568 -0.0016633 -0.005552 0.0084968 0.00070631 0.00021145 0.0031703 0.0065804 -0.0021473 0.003823 -0.0011328 0.00041111 0.0047584 -0.0020948 -0.00078359 -0.0016622 -0.0010625 -0.0079996 0.0014862 -0.0020953 0.0055388 0.004495 0.0032664 0.0091488 0.0096349 0.0056127 -0.0047732 0.0024304 -4.2903e-05 0.0047166 -0.0037135 -0.0068818 -0.0030479 0.0090896 -0.0036226 0.0045889 0.0036657 -0.0051925 0.001622 0.005969 0.0001471 0.0058211 -0.0031325 0.0011471 0.0066448 -0.001402 0.0085948 -0.0061623 0.0056123 -0.0093027 -0.0067459 0.0017489 -0.0099797 0.0049595 -0.0013605 -4.7477e-05 0.002396 0.0076652 0.009829 -0.005118 -0.0091713 -0.0031609 -0.0086099 0.0010985 -0.0048355 -0.009843 
detergent__label__department_store 0.0065724 0.0021741 -0.0062225 0.0079451 0.0092664 0.00125 -0.0019003 -0.0014434 -0.00070348 -0.0023647 0.0084775 0.00076518 0.00012444 0.00066869 -0.0022353 -0.0031006 -0.00051603 -0.0068898 0.008953 0.0067916 0.0027702 -0.0014256 0.0094706 -0.0099948 -0.0046277 -0.0076257 0.0075081 -0.0034464 -0.0038666 0.0017099 0.0097447 -0.0077349 -0.00029115 -0.0031619 0.0065542 -0.0079467 -5.2353e-05 -0.00081278 -0.0012928 -0.0090492 -0.0048794 -0.0013042 -0.0089058 -0.0029854 0.0067776 0.0099755 -0.0027006 0.0052641 -0.0066113 0.00059693 -0.0097892 -0.0043281 0.0066364 -0.00099991 0.0033467 -0.007253 0.0014511 0.0094375 0.0068325 0.00104 0.0060195 0.0058186 0.0038527 0.0065379 -0.0039171 0.0096855 0.0042793 0.00076427 -0.0048055 0.0094173 0.0090471 0.0091777 0.0060646 -0.0074924 -0.002575 -0.0017558 0.00036344 0.0076567 0.0042952 -0.0053092 -0.0027257 0.0058091 -0.0035633 -0.0031583 0.0095967 -0.0064879 -0.0039101 0.00041161 -0.0071198 -0.0023639 -0.0051401 0.0032335 0.0070011 -0.0083607 -0.0098122 -0.0091953 0.0058084 -0.0026821 -0.0053061 0.0039063 
off__label__jewelry_store 0.0085231 0.006385 -0.0050326 0.0087153 -0.0040386 0.0057572 0.0099551 0.0008693 -0.0080654 -0.0047541 -0.0069923 0.0013449 0.0073156 -0.00073492 0.0061919 -0.00082268 0.00015431 -0.0076401 0.00040015 0.0020778 0.0031689 0.0061209 0.00099514 0.0063527 -0.0068504 0.0058456 -0.0038839 0.0049273 -0.0097642 0.003672 0.0038363 0.0087606 -0.0020213 -0.0099873 0.0011383 0.00054896 1.0934e-05 -0.0026191 -0.00067359 0.0019036 0.0034211 0.0048665 0.0070171 0.0083845 0.0047573 0.0013998 -0.00090652 0.0014905 -0.0070892 0.0077839 -0.0066282 0.00038119 0.0039834 -0.008117 0.0089441 0.0044722 0.00243 -0.0035044 0.0068492 -0.0099344 0.0059905 0.0024535 0.0075275 0.008342 0.0081426 -0.0042361 -0.0036275 0.0043431 -0.007248 0.0020557 -0.0051254 0.00070877 0.0090267 0.0049076 -0.0062692 0.0031381 -0.0021892 -0.0025062 0.0075569 -0.0088194 0.0067758 0.0039073 -0.0063181 0.0057148 0.0060503 0.0056429 0.0089589 0.0015919 0.0015883 -0.0092972 -0.002595 0.0087556 -0.00022306 0.0096381 0.0053368 -0.00069095 -0.0089635 -0.0023887 -0.0093363 -0.0060991 
script__label__book_store 0.001814 -0.0069248 -0.0070619 -0.0054462 0.0088015 0.00039897 -0.0091335 -0.0035032 0.0037409 -0.0033108 -0.0021654 0.0088516 0.0098123 0.0079699 0.0032822 -0.0011538 -0.00090513 -0.0033216 0.0076891 -0.0046633 0.0086034 -0.00038218 0.0046479 0.0018442 -0.0031727 -0.0074208 0.006465 0.0083352 0.0078033 -0.0043937 0.001508 0.0030911 0.0070016 0.0020444 -0.0090742 0.0036261 0.0086892 -0.0065163 -0.0067286 -0.0016913 0.0059419 -0.005469 0.0092877 -0.0074824 0.0074808 -0.007835 -0.00054139 0.0084553 0.0019349 0.001287 0.0046644 -0.0096329 -0.00092326 -0.0053991 -0.0032642 -0.0056593 -0.0076888 -0.0036694 -0.0076533 -0.0044638 0.0032867 0.006324 0.0051669 -0.00090612 -0.0080962 0.0070891 -0.0087916 -0.00012087 0.0046989 -0.0053905 0.0042401 0.0064656 0.0058229 -0.0048173 -0.0015884 -0.008114 0.0031207 0.0090613 0.0008286 0.0072976 0.0012573 0.0016654 0.0028338 -0.0045443 0.0053507 0.00098617 0.00077513 -0.0023641 -0.005136 0.001132 0.0015197 -0.0090704 -0.0016394 -0.0085812 -0.003411 -0.0066897 0.0051059 -0.0092328 -0.00019299 -0.0074979 
for__label__jewelry_store 0.0034628 -0.0035858 0.0054017 0.0070469 -0.0053931 0.0059323 0.0034694 -0.005968 0.0081106 0.0024892 0.0024446 0.0048095 -0.0086592 0.0051624 -0.0026688 0.0061366 0.005375 0.0082834 -0.0096058 -0.0032544 -0.0029436 -0.0043504 -0.0048169 0.0012261 0.0052988 0.0035884 0.0081894 0.0050678 0.0067783 0.0015467 0.0059158 0.00044093 -0.0025508 -0.0049721 0.0079287 0.0072803 -0.0082302 -0.0088259 0.0046009 -0.00349 0.0085078 0.0016177 -0.00088449 0.0048014 0.0061749 -0.0055363 -0.0089089 0.0011026 0.0040028 -0.0034541 -0.00066023 0.007485 -0.0087407 0.0039603 -0.0095501 -0.0024584 -0.0072102 0.004204 -0.0099967 0.0045312 -0.0087859 -0.0049956 0.002751 0.0098632 -0.0022226 -0.0055654 -0.004854 0.00081302 0.0048207 -0.0028543 -0.0092714 0.0060518 0.0045182 -0.00079487 -0.0051153 -0.0076217 0.0081283 -0.0091222 -0.0067198 -0.0017491 0.0054256 0.0043652 -0.0078739 0.0069943 -0.0022756 0.0071204 0.0075045 -0.0078247 -0.0029646 0.0054591 -0.0067419 0.0050121 0.0049389 -0.0063531 -0.0020339 0.0014549 -0.0023251 -0.0022481 0.009609 -0.0031618 
nail 0.0019683 -0.0084976 0.0023222 0.0077117 0.0062145 -0.0095994 0.0024292 -0.0036299 0.0018378 0.0034764 -0.0043216 0.0088666 -0.0096485 -0.0037343 -0.0048919 -0.0027334 -0.0002778 0.008105 -0.0050507 0.0099338 -0.0066301 0.0061817 0.00095252 -0.006368 0.0020453 0.0051143 0.0074523 -0.0096406 0.0058888 0.0049765 -0.0043887 0.0077593 -0.0079884 -0.0068742 0.0090097 -0.0049254 0.00040501 0.0052722 -0.0058043 -0.0089477 -0.0068515 0.006268 -0.0048956 -0.0002978 -0.001772 -0.0010871 0.0096591 -0.0056051 0.0086454 0.0028942 -0.0075722 0.0067492 -0.0031429 -0.0017738 -0.00598 -0.0063976 0.00025943 -0.0028484 0.0025455 0.0044034 -0.0067702 0.002536 -0.0095209 0.0066268 0.0088471 -0.0067933 -0.00034644 0.00069431 -0.0019343 0.0031014 -0.0082082 -0.0028015 0.0042302 -0.0095569 -0.0090311 0.0092539 0.0084058 0.0079345 -0.0037879 0.0085811 0.0052711 -0.0081066 -0.0014213 0.0080037 -0.0023602 -0.0047058 0.0056297 0.002057 -0.0032473 -0.0088632 0.0082228 0.0032836 -0.0053026 0.0040299 -0.0080266 -0.0093034 -0.0029601 0.00085663 0.001431 -0.0010088 
sketchbook__label__book_store 0.0028455 0.0065238 -0.0039793 -0.0086301 0.003585 0.0063528 -0.0063752 -0.0072315 -0.003926 0.0066762 0.0056907 -0.008908 0.0017493 0.0025656 0.0062136 0.0099542 -0.0027392 0.00039132 -0.0073099 -0.0070597 0.008788 -0.0089925 -0.0093299 0.0094858 0.00025875 0.0034505 -0.0053758 0.0093785 -0.0094635 -0.005583 0.0040796 0.0078511 0.0093843 -0.0063992 -0.0068933 -0.0058336 -0.0094142 -0.0052338 0.0010466 0.0096804 -0.00027746 0.005185 0.0095203 0.0064307 -0.0042971 -0.0081349 0.0031086 0.0099234 0.0015471 0.0077348 -0.0039134 0.0096844 0.00071171 -0.0035778 0.0056538 0.0074829 -0.00275 -0.0068874 0.0072425 -0.0036852 0.0045299 -0.0062979 -0.0068038 0.0042221 0.0059905 -0.0062245 0.0091782 0.0015143 -0.0061611 0.0066237 0.0070963 0.0081729 -0.0098928 -0.0066071 0.008035 -0.0034979 -0.0032554 -0.0087668 0.0022776 0.0023369 0.0004387 0.0098398 0.0033064 0.0029107 -0.0022534 -0.0072845 0.0044826 -0.0091629 0.0013468 -0.0098192 -0.0095152 0.005366 0.0049399 -0.0035756 -0.0014591 0.0057747 -0.0044709 -0.0028862 0.0056913 0.0027255 
medicine__label__pharmacy 0.0038746 0.0020692 -0.0039193 0.0014231 0.0036121 0.0066493 -0.0063203 -0.003962 0.0085327 0.0051036 0.0065991 0.0058874 -0.0051513 0.0044213 0.0037687 -0.0060796 0.001842 0.0034568 -0.0060757 -0.002375 -0.0010416 0.0057476 0.009727 0.0062956 0.00081643 0.0026775 0.0064695 -0.00093185 -0.0026074 0.0048613 0.0098333 -0.001673 0.0009551 -0.0076841 -0.009669 -0.0067432 -0.00089894 -0.0037915 0.0090778 -0.0006378 -0.0072991 0.0089348 0.005773 0.0069784 0.0041587 0.0085134 -0.00050359 0.0056703 0.0070856 -0.0009741 0.0060157 0.0024798 0.0013794 -0.006402 -0.00057425 -0.0010776 0.0094355 -0.0026973 -0.0016233 0.0010323 0.0038755 -0.0096966 0.009134 0.0021642 0.00225 0.0042706 0.0087427 0.0016971 0.0051679 -0.0040154 -0.0041797 0.0041292 0.0089994 0.0062658 0.0060581 -0.0002412 0.0022359 -0.0027006 0.0079101 0.0056394 -0.0057991 0.0012485 0.0014779 0.0083911 0.00205 0.0060532 -0.0093726 -0.0087977 0.0066662 0.0053268 0.007939 0.0069625 0.0089363 0.0097533 0.0035559 -0.0098867 -0.0010869 0.0056139 0.0059321 -0.0026321 
crayon__label__book_store 0.0072264 -0.0075876 0.0008281 0.0021089 -0.0013556 -0.0089835 -0.007825 0.005738 0.0053075 -0.0088881 -0.0023273 0.0026317 -0.0063412 -0.00019681 -0.0096512 0.0097613 0.0075333 0.00038382 -0.00096911 -0.0092436 0.0045729 -0.00046365 -0.0092018 -0.0042944 -0.0056205 0.0073531 0.0024907 -0.0076882 -0.0019546 0.0045751 -0.0043746 -0.0035761 0.0011217 -0.0036047 0.00039433 -0.0034762 0.0067652 0.0010406 0.0023042 -0.0063399 0.0073719 0.0019393 -0.0029333 0.0037962 0.0032587 -0.0069815 0.0055668 -0.0051306 -0.0053023 -0.004362 -0.0077507 0.0028042 -0.0051028 -0.0039318 0.0079575 -0.0068015 0.0043818 0.0019285 -0.0021349 -0.0011283 -0.0091717 -0.0063822 0.0078761 0.0091264 -0.0034015 0.0074697 0.0054567 0.0093822 -0.0022563 0.0072158 -0.006821 0.006028 0.0012875 0.00082141 0.00071275 -0.0089039 -0.002386 0.0077562 0.0071988 0.0084143 0.0097308 -0.0024131 -0.0020267 -0.0096239 0.0038479 -0.00053313 0.0012905 -0.0020084 0.0069796 -0.0084432 0.0088143 -0.0065382 0.0067206 0.0033442 0.00039042 -0.0036069 -0.0027048 -0.0022016 -0.0048798 0.0056518 
tea 0.0064819 0.007954 -0.0070754 -0.0079359 0.0015674 -0.0078305 -0.0036027 0.0082674 -0.00096596 0.00382 -0.0060683 -0.0023691 0.0040852 0.0084494 0.0067953 0.0064821 -0.0053191 -0.0033013 0.0029869 -0.0039225 0.0023898 0.0016637 -0.00034217 0.0029333 -0.0030021 -0.0027713 0.0075039 -0.0096734 0.0016418 -0.0086907 -0.0037259 -0.0079114 0.0061265 -0.0048975 -0.0035555 -0.0051617 0.0021811 -0.0079334 -0.0081058 0.0046196 0.005536 -0.00059792 0.00088564 -0.003373 0.0015365 -0.0093952 -0.0075002 0.0088597 -0.0015265 -0.0046391 -0.0086065 0.0090754 -0.008335 0.0056209 -0.007806 -0.0015772 -0.0053711 0.0090092 0.0080494 0.0090238 0.0087267 -0.0004383 0.008349 0.0085964 -0.00062844 0.002811 0.0064594 -0.0037568 -0.0076119 0.0029744 -0.0045361 -0.0010088 0.0038052 -0.0011265 -0.00022238 0.0020555 0.0067383 0.00068983 0.0010023 -0.0025502 0.0052561 -0.0094707 0.0049838 0.00050254 0.0084646 0.0096341 0.00030868 0.0064568 0.0054034 -0.00017315 0.0013602 0.0076535 0.0091027 -0.0089093 -0.0074301 -0.0025495 -0.0059036 0.0031928 -0.0031028 0.0039611 
out__label__jewelry_store 0.0037789 -0.0042849 0.0075475 0.0066569 0.0081748 0.0086175 0.0010894 -0.00079169 -0.00035979 0.0041865 -0.0075969 -0.0095437 0.0027448 0.0033967 0.0018946 0.0011733 -0.004639 -0.0061108 -0.0087196 -0.0099977 0.0055586 0.0035703 0.0084963 0.0045258 -0.0053911 -0.00742 -0.0037514 0.0064679 0.0022676 0.0024972 0.0036717 -0.000588 0.0057087 0.0067205 -0.0035299 -0.00059476 -0.0085159 0.0074143 -0.0027705 -0.0086617 -0.0017079 0.0044996 -0.0076696 0.0084247 0.005053 0.0094461 1.1985e-05 -0.0086678 0.00045551 -0.0086117 -0.0044833 0.0047448 0.0024491 0.00033888 -0.0050919 0.0051599 0.0069165 -0.0028503 0.0052964 -0.0081448 -0.0088493 0.00089071 -0.0090519 0.0014252 0.0043422 -0.0032199 0.0044661 0.0077934 0.0029474 0.0091303 -0.0077677 -0.0020106 -0.0047485 -0.0060547 -0.0052573 -0.0019481 0.0065732 0.0060637 0.0056971 -0.0014522 0.0085515 0.0022813 0.00050734 0.00036467 -0.0090129 0.0059402 -0.0079541 -0.0011008 0.0057795 -0.0093688 0.0058008 -0.0015403 0.0063293 -0.0080372 -0.0043558 0.00046038 -0.0058015 0.0078137 0.0027216 0.0063992 
soap 0.0021756 -0.0089333 0.0049875 0.0095566 -0.0075787 0.0024924 0.0057325 0.003584 0.0094887 -0.0022001 -0.0044203 0.0013309 0.0047351 0.0061946 0.0033934 0.0061165 0.0027421 -0.004791 0.0072535 -0.0042761 -0.0099532 -0.0020309 0.006652 0.0011161 0.0039855 -0.0047 -0.0026515 0.0026607 -0.0041208 -0.0066206 -0.0017162 -0.0032816 -0.004629 0.0029506 -0.0086805 -0.0051138 0.008997 0.0054591 0.0068438 0.0091331 -0.0079801 0.0018228 0.00063967 0.0084443 0.0059159 0.006338 -0.0046814 0.00095278 0.0037868 0.0083971 0.0042589 -0.0065463 -0.0093309 0.00084392 -0.0056029 -0.0035991 0.0079413 -0.002589 -0.0044303 0.0062652 -0.0094254 0.0019595 -0.004179 0.0053339 -0.0084053 -0.0032743 0.0032946 0.0024073 -0.0024572 -0.0065217 -0.0096817 0.009056 0.0069317 0.0094544 -0.0065314 0.0076374 0.0060711 -0.00068352 -0.00022743 -0.0077932 0.0066576 0.0078077 -0.0040598 -0.0075065 0.0044342 0.0014735 -0.0030134 0.0088637 -0.0015471 -0.0091003 0.0053478 0.0090753 0.0052488 0.0019711 -0.0087672 -0.0055694 -0.0026872 -0.0097187 -0.0072966 -0.0044452 
pudding__label__bakery 0.00304 0.0078906 -0.0032474 -0.0082091 0.0022323 0.0056188 -0.0097605 0.0024465 -0.0067552 -0.0053963 -0.001689 0.0086577 -0.001588 0.0079991 -0.0042128 0.0052193 0.0049335 0.0016704 0.0098863 -0.0055817 0.0085792 -0.0086125 0.0095923 -0.00038819 -0.00047984 -0.004743 0.0057378 -0.0036913 -0.0073943 0.0014553 0.0094924 0.0075694 0.00081256 0.0083959 0.00046957 -0.009412 -0.004655 -0.0027538 -0.008821 0.0042938 0.0051751 0.0090071 -0.0028826 -0.00032948 0.0032198 -0.0077866 0.0047025 0.0030401 0.00017734 -0.0086413 -0.0019572 0.0065116 0.0037028 -0.0058167 -0.0055754 -0.0036399 -0.0025764 -0.0075666 -0.00049147 -0.00085077 -0.0060983 -0.00034677 0.0042449 0.0010688 -0.0088483 -0.0097948 0.0054707 5.8243e-05 0.0059886 0.0034577 -0.0094814 -0.00065151 -1.6193e-05 0.00062876 -0.0045731 0.0049065 -0.0095598 0.0024522 0.0010156 0.0029637 0.00015816 -0.0048092 0.0021896 -0.0073523 0.0035707 0.0088212 0.0002245 8.2936e-05 -0.0042482 -0.0068229 0.0076168 -0.0047757 -0.0067457 -0.005253 0.0091825 -0.0098835 0.0014161 0.0012267 0.0081817 -0.0061773 
coffee -0.0028896 0.0065069 0.0080243 0.0068124 -0.0083843 0.0067128 0.00016904 0.0028691 0.0081837 0.0041957 -0.0002758 -0.0035824 0.00014343 0.0016881 -0.0072716 0.0084677 0.0066171 0.007227 -0.0068458 0.0066609 -0.0014845 0.0095719 -0.0095619 -0.0018652 0.00093563 0.0040647 0.0061007 0.0081104 -0.0081143 -0.0039168 0.0063413 -0.00083854 0.0097466 0.0022293 0.0044505 0.0072022 0.0070672 0.0084912 -0.0062919 0.0048526 -0.0086832 0.00079022 -0.0097885 0.0022014 0.0063158 -0.00013698 0.0096882 -0.0044813 -0.0061281 -0.0082688 0.0091232 0.0092266 0.0043371 0.0087097 -0.0024568 -0.0090003 -0.0046559 0.0082946 0.0079002 0.0020867 -0.0034186 3.3378e-05 -0.0061191 0.0054645 0.004371 -0.0092809 0.0097615 0.00097697 0.0067209 0.0022311 0.0039818 -0.003128 -0.0076968 -0.0079626 0.0013464 -0.0038657 -0.00027102 -0.0092918 -0.0024229 -0.0012931 -0.0028986 0.003746 -0.0027707 0.001992 -0.0096411 -0.00017576 0.0098305 -0.0031562 -0.000105 -0.0075435 -0.0042308 -0.0087157 -0.0015099 -0.0079575 0.0050334 0.0036714 0.0006283 0.00047075 0.0051494 -0.0095524 
scotch -0.0052295 0.0049546 -0.0022523 0.0084697 -0.002088 0.0090023 -0.0056958 -0.0054611 0.0039626 -0.0074659 -0.0012154 -0.0062841 0.003166 0.0096948 -0.0081329 0.0079922 0.0074761 -0.0081586 -0.007959 0.0041917 -0.0017882 0.0026798 -0.006328 0.0006884 -0.0090939 -0.005043 -0.0095605 0.0033835 0.0022163 -0.0043044 0.0055358 -0.0097041 0.0073058 0.0062004 0.0075983 -0.0091649 0.0077882 0.0071136 -0.0053567 0.0024854 -0.0082242 -0.0082134 -0.0024136 0.0049038 0.002736 0.0081742 0.006127 0.0030251 0.0078449 -0.009969 0.0091711 0.0049822 -0.0032601 -0.0039527 -0.0074044 -0.005287 -0.0041223 0.004339 -0.0018821 0.0072016 0.0078309 0.0088803 -0.0040539 -0.0042071 -0.0043066 -0.0027307 -0.0070914 -0.0021107 -0.0071277 -0.0098571 0.0042965 0.0047369 -0.0024032 0.0014207 0.00069287 -0.001104 -0.0015669 -0.0094735 -0.0043331 0.0061075 -6.0699e-05 -0.0054942 -0.0053862 0.0077269 0.0065003 0.0091188 0.00086363 0.0072279 -0.0056656 0.0089353 -0.0028336 -0.0040714 0.0086307 -0.0027042 0.0032507 0.0061651 0.0099033 0.0055441 0.0057505 0.0075216 
iced 0.0056456 0.0024805 -0.0093572 0.0020649 0.0048326 0.0015951 -0.0045949 -0.0054739 0.0022239 0.00728 -0.0076312 0.0024078 -0.0015917 0.0012651 0.0021404 0.0080356 -0.0036626 0.0052324 0.0043685 0.0011384 0.0033994 0.0011978 0.00075817 -0.0038328 0.0069285 -0.0011481 0.0059612 -0.0033571 -0.0064758 0.0094482 -0.0018916 -0.00062736 0.0035425 0.0075459 -0.0036467 0.0050897 0.0019642 -0.00011169 -0.0027625 0.0025813 -0.0021676 -0.006937 0.0030997 -0.0061299 -0.0040105 -0.0094323 -0.0061656 -0.0032722 -0.0070335 0.00049769 0.0079765 -0.0045822 0.0060487 -0.0084974 0.0042456 0.007953 0.0098128 -0.0038919 0.0087152 -0.0035214 0.0037668 -0.0030507 -0.0031646 0.0081442 -0.0042325 0.0024872 0.0066907 -0.0027279 0.0092612 0.0095902 -0.0065432 0.0056081 -0.0027769 0.0041441 -0.007849 -0.0096557 -0.0057282 0.0061035 0.00016329 0.0040175 -0.0035883 -0.002554 -0.0078594 -0.0064138 -0.0019239 0.0071118 0.0032115 0.0047101 -0.0047152 0.0043325 0.0099324 0.0011919 -3.828e-05 -0.0033322 0.0060519 -0.0095899 -0.003531 -0.0085131 0.00033896 0.0051743 
marker__label__book_store 0.0044839 -0.0052111 0.0032403 0.007459 -0.0068545 -0.008855 -0.0077887 -0.0025277 0.0082644 -0.0064257 -0.0053462 0.0088996 -0.0078565 -0.0086059 -0.0085281 0.0087015 0.0027007 -0.0074717 -0.0080193 0.0072604 0.0016577 0.0013899 -0.00060003 -0.0031293 0.0032311 0.001996 0.0034386 -0.0098283 -0.0069544 -1.1106e-06 0.0084591 -0.0039797 -0.0082089 -0.0060257 -0.0097618 -0.0043751 -0.0083723 -0.0093212 0.0033041 0.0015654 -0.0069632 0.0045669 0.00315 -0.0012238 -0.0094254 0.0068263 -0.0044301 -0.0082108 -0.0051892 -0.0064039 -0.0046454 -0.0034915 0.0089119 0.0083114 0.0030764 0.0083264 -0.0066844 -0.00034818 0.00083587 0.0013912 0.0066979 -0.0095255 0.00035197 0.0023129 -0.0099226 -0.0095846 0.0079877 0.0034098 0.0026449 -0.0041417 -0.0083079 0.0043415 0.00025621 0.007335 0.0032636 0.0025453 0.00042676 0.0051237 -0.0026368 -0.00044654 -0.0040917 -0.0075195 -0.00072113 -8.3377e-05 -0.0057675 0.0054202 -0.004161 -0.0020044 -0.0072707 -0.0086453 -0.0087852 -0.0069847 -0.0085475 0.0037893 0.00062592 -0.0093574 -0.0051209 -0.00016229 -0.0072965 -0.0010777 
hair 0.001058 -0.00095507 0.0020824 0.0089287 0.0035948 0.0043896 -0.00073006 -0.006267 0.00028702 0.0024835 0.0035112 0.00099175 -0.003005 -0.0037332 0.0011735 -0.0072371 -0.0051406 0.0096223 0.0022091 -0.0036206 -0.0025209 -0.0040295 -0.0064158 0.0088294 -0.0074043 -0.0056867 -0.0058471 -0.0098006 -0.0012546 -0.0071862 -0.009204 0.00073562 0.0072966 0.0063677 -0.0055058 0.00090371 0.00034793 -0.001403 -0.00039254 0.00632 -0.0018532 0.006822 -0.0042152 0.006332 -0.0095812 -0.0014415 0.0010416 0.0052484 0.0099828 0.0089473 -0.0093301 0.0030656 0.0010671 0.0064049 0.0062957 -0.0079168 0.00037414 -0.008103 0.0065004 -0.0006283 0.0061418 -0.0048254 0.008901 -0.0011248 0.0075251 -0.0028024 -0.0012302 0.0083148 -0.0054514 0.0015191 -0.0093492 -0.0095313 0.0082826 -0.00055246 0.0012124 0.003083 0.0083541 -0.009358 0.0097508 0.0029629 -0.0016608 0.0019019 0.0083886 0.0019179 0.0032707 -0.00037263 0.0081179 0.0058893 -0.0051407 -0.0022659 0.004264 -0.0089711 0.0090112 0.0081827 -0.00077314 -0.0086008 0.0011612 0.0014109 -0.004308 0.0067797 
soda__label__department_store -0.0056396 -0.0085061 -0.0021875 0.0011501 0.0087861 0.0080309 0.0076567 0.0008009 0.001884 0.0094242 -0.003302 0.0052335 -0.0075047 -0.0020603 -0.0092859 -0.0084403 0.00060245 -0.0090806 0.00099121 -0.0049926 -0.0028976 0.0036404 0.0040347 -0.00026062 0.004343 0.00565 -0.0031225 0.0016214 -0.0022939 0.0088745 -0.0012478 0.0080594 -0.0091028 -0.0051783 0.0082946 -0.0043406 -0.0070693 -0.0057669 0.0068304 -0.0075659 -0.008533 -0.00067 -0.0026864 0.0076463 0.00083568 -0.0022513 -0.006027 -0.0061659 0.0072629 0.0048631 0.0089467 -0.0072011 0.0020203 0.0045454 -0.0086153 -0.007721 -0.0083243 0.0011577 -0.0069779 0.009663 0.0097058 0.0088805 -0.0031771 -0.0089669 -0.0013841 0.0030818 -0.0013558 -0.0065285 -0.0092862 0.0087114 0.0095433 -0.0059814 -0.0087274 -0.0018345 -0.0034314 0.0097393 0.0083463 -0.0063847 -0.0092727 0.0068106 0.0090152 0.0089889 0.0078357 0.009071 0.0040839 1.7033e-05 -0.0083463 -0.0022545 0.0091755 -0.0078824 -0.0048311 -0.0014555 0.0028241 0.0091414 0.0057882 0.0021376 -0.0097621 0.0029744 0.0030708 -0.006803 
lotion__label__department_store -0.0026349 0.0098794 0.0080082 0.0052494 -0.0032394 -0.0059364 -0.0020496 0.0066412 -0.0043914 0.002141 -0.0018189 0.0030068 0.0013186 -0.0042949 0.0051078 0.0042676 0.0072637 -0.0014645 -0.0001729 0.0007132 0.0020204 0.0041324 -0.004386 -0.0017862 0.00077927 -0.0054529 0.0050558 0.002793 -0.00012523 0.0039501 8.2408e-05 0.00078953 0.0089291 0.0042805 0.0035612 -0.0068723 -0.0022106 -0.0050703 0.00073121 -0.0097699 0.0078814 0.0066782 -0.0014947 -0.0029796 -0.0045093 -8.0575e-05 0.0076764 -0.00085451 0.0040209 0.0026266 0.0076692 -0.0072778 0.0090021 0.0065082 -0.0044295 0.0070315 -0.0056287 -0.008259 0.0026743 0.0010179 0.0045206 0.0021805 -0.0095225 0.0093909 0.007988 -0.0073809 -0.0054218 0.0051927 -0.0053841 -0.0062846 0.0046645 0.009897 -0.0084189 0.0047486 -0.0045928 -0.0011401 0.0091843 0.0073851 -0.0063205 0.0057922 -0.0071906 -0.0062613 -0.00042501 0.0041047 0.0036799 -0.00068652 0.0027046 0.00040797 -0.0089164 0.009509 -0.00015593 -0.00019021 0.0085266 0.0042735 -0.00819 0.0070117 -0.0092295 -0.0094801 0.0067394 -0.0092701 
bean__label__department_store -0.0019878 0.0089347 -0.0069921 -0.0073853 -0.0033314 0.0067559 0.0018763 0.0011409 1.0614e-05 0.0030818 0.0040568 0.0070924 -0.0079433 0.0031098 0.0070583 -0.0058196 -0.004109 -0.0007015 0.0037648 -0.0006382 -0.0078141 0.0022313 0.0044724 0.0056115 0.00022892 -0.0025215 0.0090137 0.00020297 -4.5567e-05 0.0077498 -0.0072865 0.0099756 0.00051675 -0.0055853 0.0084934 0.0023037 -0.0029844 -5.6961e-05 0.0040575 -0.0031352 0.0050929 0.0049077 0.0020705 0.0082077 0.0015875 -0.0053295 -0.0047443 0.0046069 -0.0041459 -0.0032098 0.0043353 0.0043083 -0.0047102 -0.0019719 -0.0071475 -0.00029522 -0.008607 0.0023895 -0.0037295 0.0069305 0.003294 -0.006941 0.0041954 -0.00080514 -0.0093956 0.0056789 0.0052362 -0.0075157 -0.00094708 0.0038124 0.0036095 -0.00899 -0.0056942 0.0024008 0.0037331 -0.0046433 -0.005249 0.0090996 -0.0078536 -0.0089563 -0.00458 0.0047276 0.0015395 0.0014997 0.0066584 -0.00021541 0.009594 0.0059366 0.0043716 -0.0097389 0.0088911 -0.00062211 -0.0015989 0.0066881 -0.0048417 0.0094485 0.0059666 -0.0093284 0.0055833 0.0040382 
fruit__label__grocery_or_supermarket -0.0036619 -0.0098252 0.0069586 -0.0050224 -0.005962 -0.0090582 -0.0059765 -0.0035697 -0.008429 0.0048752 0.0021721 -0.0087841 0.0084731 0.0026889 0.0059398 -0.0093266 -0.0056861 0.0056086 -0.0085198 0.008327 -7.4101e-05 0.0074915 -0.0047261 -0.0070394 0.002801 0.0013431 -0.0032086 0.0027201 0.0069934 -0.00012599 -0.0091459 0.0067074 0.0036987 0.0074953 0.009763 0.00073125 0.002335 0.0049229 0.0077065 0.0082162 -0.0037449 0.0015971 -0.0076738 -0.0038159 -0.00088578 -0.0049299 0.0026967 0.0041152 0.0091661 -0.0039713 0.0077291 -0.0054468 0.00024434 -0.0041174 -0.0049578 0.004424 -0.0031093 0.0024249 0.007396 0.0056912 0.0078234 0.0018295 -0.0026338 -0.0043751 0.0060546 0.005801 0.0080493 0.00027222 -0.0070497 -0.005042 0.0038369 -0.0016214 0.0054274 0.00045947 0.00071414 0.00016722 0.0025917 -0.0075742 0.0096002 -0.0089939 -0.0070084 -0.0068919 0.0036913 -0.0038214 0.0080821 -0.0024766 -0.0085508 0.002013 -0.0062573 -0.0062997 -0.0044322 -0.0064503 0.0062795 -0.0081756 -0.0043605 0.0093994 -0.0039242 -0.0081958 -0.0045048 -0.0098463 
mouthwash__label__department_store -0.0060925 -0.0093454 -0.0041985 -0.0020536 -0.0090845 -0.0069896 0.0053219 0.0039883 0.0086366 -0.0039998 -0.0033667 -0.00028867 -0.005361 -0.0060697 -0.0052876 -0.0056746 -0.0088616 -1.7261e-05 -0.0068726 -0.0044058 -0.0071838 -0.0070727 -0.0075074 0.0053645 -3.2817e-05 -0.0050855 0.0056343 -0.0023401 -0.0022529 0.0089103 0.0080165 -0.0046258 -0.00071331 -0.0062168 -0.0041696 0.0022549 -0.0061116 -0.0070258 0.0041716 0.008856 0.0013731 -0.004307 0.0094928 -0.0063446 0.0034446 -0.002308 0.0034844 -0.0094822 -0.0043183 -0.0083483 0.0090477 0.0013662 -0.00061239 -0.0084769 -0.001815 -0.0014954 -0.00027614 0.00418 0.0061789 -0.00094554 -0.0097913 -0.00070445 -0.0050349 0.0029763 -0.0093453 0.0030691 -0.0050129 0.0074033 -0.0091947 -0.0078838 -0.0015264 0.0097735 0.0085844 -0.00012615 0.0027638 -0.0066831 -0.001205 -0.0014091 0.0020223 -0.0073414 0.0082483 0.0035826 -0.0068715 0.0082956 0.0038936 0.005984 -0.0050258 0.0054683 -0.0099446 0.0065301 0.0049891 -0.0060512 -0.0014727 -0.0099431 -0.0040095 0.0081237 -0.0043214 0.0095523 -0.0092986 0.0093406 
pie__label__bakery 0.0066416 -0.0039939 -0.0074402 0.0066272 0.00778 0.0034266 0.0032531 -0.0057443 -0.0069614 -0.0061363 0.0010146 0.0060965 -0.0085014 -0.0032784 -0.0082827 0.0066254 -0.0090911 0.0039388 0.0055679 0.0093553 0.003424 0.0081269 -0.0038288 -0.0089059 -0.0067832 0.0034014 0.0087458 0.0052129 0.0093137 0.0016938 0.0090566 0.0060577 0.001157 -0.0042591 0.00016897 0.0039331 0.0039507 9.8569e-05 0.0029565 -0.0067332 0.0016256 0.0034783 -0.0011345 0.0064855 -0.0086294 -0.008098 -0.0034843 -0.0047997 -0.0037205 -0.008887 0.00049415 0.00088574 -0.0061601 -0.0034343 0.0063582 -0.0099273 -0.0032292 0.0099448 -0.001094 0.0027104 0.0067479 -0.0042872 0.0037258 -0.0017212 0.0049584 0.0028526 -0.0060595 0.0010357 0.0076785 -0.0030402 0.0077996 0.0036456 0.008525 0.0050896 -0.0096112 -0.0089833 0.0091078 0.0042764 0.0070353 0.0055512 -0.0028958 0.00086206 0.0057842 0.0071631 -0.0056668 0.0048373 0.0019473 -0.0013147 0.0066832 0.0011631 -0.0096776 -0.0090586 -0.0068757 -0.009003 0.0033157 -0.0046949 0.00016371 -0.0056152 0.0039614 -0.0022502 
ballpoint 9.4561e-05 -0.00283 0.0041661 0.00072845 0.005082 0.0015465 0.0064115 -0.0078572 -0.0068683 0.0033204 0.0078603 -0.00058832 -0.0036274 0.0011768 0.009657 0.00017715 -0.0078584 -0.005388 -0.0064153 -0.0048056 0.0066548 0.004397 -0.0032597 -0.0054827 0.0048746 0.0050422 -0.004347 -0.0080118 0.0049432 0.00364 0.0071367 0.0039113 -0.0077133 0.0053624 -0.0058598 -0.0081074 -0.0072108 0.0099214 0.0027926 -0.0098568 -0.00542 -0.0063516 0.0014793 0.0033715 -0.0049425 0.0025523 0.0043268 0.0071388 0.00048893 5.9455e-05 0.0098791 -0.003094 -0.0032918 -0.00023636 -0.0071835 0.0067153 -0.004578 -0.0042576 0.0068239 0.0086239 -0.0085972 -0.0032479 -0.00068481 0.0028636 -0.0040044 -0.0011966 0.0055494 0.0014534 -0.0095003 0.0033952 -0.0069006 -0.0040337 0.0094156 0.0028081 -0.0069078 -0.0060418 0.0024797 -0.008242 0.0097795 -0.0099528 0.0011863 -0.0065541 -0.0022133 -0.0092618 -0.0060886 -0.00756 -0.0035247 0.0018617 0.0075063 -0.004845 -0.0071165 -0.0045755 0.0073621 0.0031196 -0.0039692 -0.0050244 -0.004969 0.0088364 -0.0076363 -0.0036073 
pencil__label__book_store 0.0082994 -0.0066947 -0.00059958 -0.0042812 0.0085705 -0.0032811 -4.1271e-05 0.0077373 -0.00066413 -0.0039012 0.0091892 0.007957 0.0077124 -0.0043095 0.0012438 0.0082124 0.0084724 -0.0048217 0.0064246 -0.0044751 0.0021362 -0.00069126 0.0017423 0.0019759 -0.0083302 0.0014129 -0.00087055 -0.0012153 0.0090564 0.0040096 -0.0049238 0.0027061 -0.0096747 0.0076681 0.0011654 0.00067376 0.0037124 -0.0059279 -0.0069885 0.0096232 0.0042579 0.0016322 0.0076666 -0.0080099 -0.0065428 0.0061139 0.006601 0.00082063 -0.0061928 0.0061273 0.00039946 -0.0031619 -0.0054996 0.0022458 -0.0086374 -0.0040729 0.0042773 0.0082635 0.002225 0.0069179 -0.0020597 0.0047004 -0.0034225 -0.0010243 0.0046437 0.0016605 -0.0064693 0.0080686 0.0081391 -0.00037079 -0.0076331 -0.009674 0.004522 -0.0030424 -0.0015656 -0.0098623 -0.0080317 0.0093316 0.0075835 0.0036741 0.00066428 -0.0079022 -0.0046105 -0.0028651 0.0059068 0.0057356 -0.0003088 0.0038739 -0.0036212 -0.0003683 -0.0098179 -0.0043666 0.0011279 -0.0010566 0.0026032 -0.0047967 -0.0053362 0.0020143 -0.0070927 -0.0010586 
baking 0.0067276 -0.005339 0.0044281 -0.0019649 0.003135 0.0089017 -0.0017362 0.0037742 -0.00094863 0.0036207 -0.0057392 0.00087809 0.0037589 0.0081836 0.0048487 0.0086699 0.0055145 -0.0078755 -0.0039869 0.0065513 -0.0012219 -0.0090805 -0.0044797 0.0045976 0.0067343 -0.0047512 -0.0064422 -0.0030315 0.0040523 -0.0012879 0.0053599 -0.0072756 0.0025902 0.008145 -0.0058905 -0.0062648 0.0078688 0.0022279 -0.0053432 -0.0086066 -0.008391 0.0082366 -0.004307 -0.0054645 0.0064778 -0.0082203 -0.0085048 -0.0048615 0.0086736 0.0067899 0.0055219 0.0087333 0.0021956 -0.003033 -0.0082606 0.0054414 -0.0070065 0.0052134 -0.0071655 -0.00094293 -0.00089326 -0.0042143 0.0045156 -0.0018192 -0.0061331 -0.0087293 0.0080623 0.0080562 -0.004008 -0.003911 -0.0050192 -0.0095002 0.0031305 -0.0015747 0.0099084 0.0099741 0.006541 -0.0035 0.0048509 0.0017593 0.0049715 -0.0078652 -0.0063508 0.0042294 -0.0068523 0.004722 0.0087515 0.003345 0.0030893 -0.0010648 -0.0054837 -0.0024531 0.0093337 -0.0018167 0.0054171 0.005681 -0.0062223 0.0057569 -0.0068275 -0.0076233 
deterge__label__department_store 0.0054736 -0.0080933 0.008006 -0.0052042 0.0083432 0.009012 -0.0044426 0.0066276 0.0052279 0.0098469 0.0054986 -0.0024612 0.00049665 -0.0022812 -0.004574 0.0048648 0.0064238 -0.0092815 -0.0083394 0.0067894 -0.0054044 -0.005556 0.0062955 -0.0062161 -0.00061526 -0.0050921 0.0019376 -0.0016613 -0.0080606 0.0031692 0.0050763 0.0025865 -0.0054979 -0.0020543 0.0011881 0.0027172 -0.0073764 -0.0085546 -0.0046515 0.0019812 -0.0017919 -0.0071561 -0.0017899 -0.0060049 -0.0024482 0.0094498 0.0038302 -0.0013731 0.0078718 0.0090848 0.0099074 0.0076227 -0.0053958 0.0069541 0.00194 -0.002866 -0.0068028 3.9653e-05 -0.0031857 -0.0097114 0.0040263 0.0029051 0.0088087 -0.0097651 0.0078248 -0.0079138 -0.0088842 0.0043535 9.5243e-05 -0.0088602 0.0023033 -0.0021043 -0.008447 0.0059118 0.00083762 0.0071998 -0.0025749 -0.0074945 0.0036232 0.0091673 0.0082098 0.0079622 -0.00066462 -0.0089693 -0.0043043 -0.0085569 0.0093765 -0.0081241 -0.0021468 -0.0031433 0.00109 -0.0083906 -0.0046604 0.0035783 0.0025927 -0.0019125 0.00783 -0.0040807 -0.0091999 0.0060009 
cream__label__department_store 0.0016676 0.0049692 0.0051111 -0.0020628 -0.006124 0.0093681 0.0029807 0.0029565 -0.0037254 0.0012346 -0.00051294 0.0068719 -0.0099994 0.0030828 -0.0094925 0.0063823 0.0073868 -0.0036086 -0.0035117 -0.0061293 0.0076261 0.0055277 -0.0053816 0.0023242 0.0085165 1.4673e-05 -0.0085817 -0.0045688 5.0574e-05 -0.0074293 0.00069107 -0.0062095 8.2726e-08 -0.0039854 -0.0052566 -0.001612 0.0061902 0.004987 -0.0067292 -0.00048405 0.005735 0.0067699 -0.0014914 0.0079295 0.0052238 0.0063568 -0.0085492 -0.0062546 -0.0083906 0.00072462 0.0052221 -0.0099368 -0.0066461 0.00090468 0.0013594 -0.0038257 -0.0062567 0.0021553 0.0056161 0.0044873 0.0054507 0.0090652 0.0030657 0.00081565 0.0057765 0.00016347 0.0041657 -0.0036702 0.0062363 -0.0038815 -0.00016719 -0.0051396 -0.0069287 0.0063809 -0.00095559 0.0067358 0.0059509 -0.0066961 0.0045232 0.0010647 -0.0090208 -0.0079948 -0.0063736 -0.0063888 0.0054191 -0.0013542 0.0085735 -0.0044522 -0.0058506 0.0041725 -0.0082438 1.662e-05 0.001407 -0.00068483 0.0030066 -0.0035134 -0.0025119 0.009107 0.007726 0.0029909 
pad__label__book_store 0.00038718 0.0011312 -0.0081903 -0.0085976 0.00088942 0.0022133 -0.00040042 -0.0037528 0.0043834 -0.0048674 0.0054856 0.0073245 -0.0007631 0.0054235 -0.0090738 -0.0057071 -0.0087334 -0.0089174 -0.00013557 0.0066605 0.0079459 0.00085693 0.0084031 -0.0034541 -0.0018775 -0.0099841 -0.0019737 0.0013757 -0.00081349 0.0058023 -0.0075339 0.0078774 -0.0084589 0.0035729 -0.0030707 -0.0046958 0.0028468 0.0018302 -0.0078525 0.0050154 -0.0010287 -0.0084972 0.0052246 -0.0023388 -0.0023779 -0.0051779 0.0040603 -0.0011012 0.00063064 0.0089774 -0.0042882 -0.0051042 0.0091832 -0.0098756 -0.0098571 -0.0050387 0.0019002 0.0055878 -0.0092004 -0.0027516 0.0043625 0.0047786 -0.00053098 -0.0040819 -0.003747 0.0088295 -0.0019099 -0.0011983 0.0038748 -0.0015672 0.00549 0.0096922 -0.00044959 0.0050717 -0.0048892 -0.0026207 0.0027895 -0.0033814 -0.0049488 -0.0096744 0.0065744 0.0032937 0.004422 -0.0057742 0.0045995 0.0019108 0.0013953 -0.0092071 -0.0021098 0.0028623 0.0049826 -0.0034237 0.009599 -0.001031 -0.0028651 0.0010318 -0.0074535 0.0026329 -0.0029689 -0.0086435 
cookie__label__bakery -0.0044768 -0.0018737 0.0041616 -0.0069099 0.007753 0.0052191 -0.004698 -0.0021809 0.0010796 0.0083645 0.0085447 0.0086955 -0.0077845 -0.0037257 0.0072932 -0.0051444 -0.00083597 0.0037916 -0.0050409 -0.005518 0.0087565 -0.0043707 0.0019938 -0.0076957 0.00083165 0.0050247 0.0064927 0.0096801 -0.002905 0.0099424 0.0035988 0.0097684 -0.0056161 0.0091046 0.0031613 0.0013595 0.0090917 0.0059236 -0.0070457 -0.0093582 -0.0034732 0.0073786 -0.0071198 -0.0018283 0.0075208 -0.0005241 0.0023885 0.0041425 0.00052392 -0.00021975 -0.0065854 0.00508 -0.0026596 -0.0030531 0.0035375 0.0042095 0.0098995 -0.0052882 0.0098144 -0.0022081 -0.0097601 0.0053295 0.0046574 0.0027418 0.0072271 -0.0059996 -0.0017323 0.0055024 0.0080002 -0.0082512 0.00041945 -0.0058476 -0.00384 -0.0024556 -0.0052621 -0.0090242 -0.0088247 0.0050471 0.00050005 0.0052695 0.0032884 0.005555 -0.002898 -0.0077693 0.0082039 -0.0059386 0.0083073 0.0055918 -0.0077145 0.0028946 -0.0090174 0.0027303 -0.0031543 0.0075657 -0.0050201 -0.00969 -0.0019825 -0.0013158 0.0090986 0.0034564 
of 0.0096043 -0.0020096 -0.00015381 0.0047517 0.0016897 0.0043759 0.0026324 0.003982 0.007317 -0.003643 0.003853 0.0062761 -0.0069349 0.0056909 -0.00691 0.0044816 -0.0028219 0.0056906 0.0014093 0.0094857 0.0020984 0.0062319 0.0010183 -0.0034401 -0.0083 0.0066816 -0.0099111 0.0020069 0.0023367 0.0033485 -0.0071207 0.0089471 -0.0026941 -0.00017503 -0.0017963 -0.0051537 0.0032365 -0.0096843 -0.0003162 0.0074041 -0.0060328 -0.0074008 0.0089651 0.0033081 -0.0098784 -0.0036577 -0.0055166 0.00063609 -0.0081145 0.0022215 0.0048064 -0.0082096 0.0052045 0.0033456 -0.00057581 -0.0098747 -0.0035423 0.0033151 -0.0048725 0.0028544 0.0021141 0.0036375 -0.0047334 -0.0079489 -0.0080143 -0.0025669 -0.0040915 0.0041592 0.0065039 0.0069541 0.001523 0.0058216 0.0030475 0.004807 -0.0097755 -0.0091122 0.0099822 0.0089639 0.0010855 0.0019229 -0.0092486 -0.005001 -0.0058375 0.0034021 -0.0015973 0.0097353 0.0062993 -0.0077196 0.0012516 -0.0060155 -0.0012187 -0.0074094 -0.0037208 -0.00541 0.0048918 -0.0080571 -0.0054321 -0.00033646 0.0029286 0.0076335 
pants__label__clothing_store 0.00021809 -1.3271e-05 -0.00075286 -0.0038094 0.0082247 -0.0069239 0.0030855 0.0078157 -0.0062871 -0.0035733 -0.0092711 0.0084923 0.0015907 -0.0094195 0.0090812 -0.0092228 -0.0058314 -0.0095171 0.0061576 0.0055547 0.0070545 0.00095245 0.0032687 0.0088589 0.0016778 -0.0036424 0.0026581 -0.0033566 0.0067307 -0.0080901 0.009906 0.0048115 -8.1907e-05 0.0038524 -0.0040737 -0.0025404 -0.00016863 -0.0040497 0.0012932 0.0026338 0.0015798 -0.0032872 -0.0014335 -0.006626 0.0035836 0.0010622 0.0024358 -0.0066815 0.0098988 0.0078327 -0.0082412 0.0012116 -0.0051073 -0.0070201 0.0057622 -0.0099789 0.0019892 0.0075052 -0.00040703 -0.00059177 0.0003452 -0.0077551 0.0098493 -0.0072539 0.00072372 0.0038927 0.0028068 -0.0073254 0.007009 -0.0071714 -0.0072195 -0.0081281 -8.3214e-05 0.0079715 -0.0099351 0.0010329 -0.0019533 0.0057204 -0.0059888 0.0061861 0.0058498 -0.006203 -0.003536 -0.0001729 -0.0054823 -0.0069913 -0.0050665 -0.002799 -0.0076761 0.0052348 0.0013518 -0.0072298 0.0069652 -0.0076366 -0.0041663 0.0027383 -0.0030739 -0.0083517 -0.0089553 -0.0012833 
cookbook__label__book_store -0.0089171 0.00089557 0.0074882 0.0022195 0.0021058 0.0085477 -0.0047562 -0.0037089 0.0098014 -0.00058427 0.0047551 -0.00082037 0.0057359 -0.00075551 -0.0095432 0.0058803 -0.0018552 -0.0090311 0.006614 0.0006461 -0.0023257 0.0091558 0.0068407 -0.004742 -0.0085923 0.0079786 0.0081219 0.0028905 -0.0094628 -0.0024057 0.0075577 0.0055276 -0.005912 -0.0085528 0.00081377 1.6479e-06 0.0070827 -0.0014321 0.003649 -0.0080155 -0.00096091 -0.0041022 -0.0050492 -0.0060327 0.0049523 -0.0073781 0.0099712 0.0045438 -0.0085566 -0.0015051 -0.0055622 -0.0050328 -0.0012422 0.0089909 -0.00019596 0.0022143 -0.0083786 -0.0085344 0.007709 -0.0099377 -0.0090844 -0.0036834 -0.0051053 0.004054 -0.008279 0.00019166 -0.003189 -0.0025706 0.0047818 -0.0061991 0.0088017 0.0008067 0.0036749 0.0028052 -0.0082141 -0.0089646 -0.0022617 -0.0086557 0.0066822 0.0029806 0.0076242 0.0088713 0.0064562 -0.0077254 -0.0073092 0.0018572 -0.0082867 0.0019774 6.6315e-05 0.0099588 0.0041734 -0.0059455 -0.0030515 -0.0095326 0.0036072 0.0028376 -0.00087539 0.0064851 0.0071569 0.0034556 
bible__label__book_store -0.0024083 -0.0010807 0.0019276 0.0020557 0.00030977 0.0057012 -0.0050806 -0.0094594 -0.0083846 -0.00086132 0.00090268 -0.0090615 -0.00083876 -0.0073303 -0.00068542 -0.0099831 -0.0068787 0.0013684 0.004911 0.0027972 -0.0015665 -0.0042092 0.0058345 0.0010088 0.0079287 -0.006516 -0.0057782 -0.0090239 0.0066405 -0.0094481 -0.0038992 -0.0072323 -0.0084963 -0.0061661 -0.0078814 0.00069372 0.0019526 -0.0083866 -0.0051491 0.0005707 -0.0060459 -0.003596 -0.0099808 0.0094495 -0.0037163 -0.0086623 0.0098136 -0.0008056 0.0028218 0.0019348 0.0074478 -0.0066775 0.0083288 -0.0017078 -0.00801 -0.0070415 0.0039341 0.0080722 -0.0082471 -0.0020121 -0.0099901 0.0022194 -0.00030617 0.0061594 -0.0074551 0.0098336 -0.008259 0.0063659 -0.0056156 0.0047792 -0.0029707 -0.0031608 0.0028132 -0.0066681 -0.00079759 -0.0073293 0.0070469 0.0068774 -0.0051638 0.0077323 -0.0014649 -0.0060126 -0.0030745 -0.0096832 -0.0063393 -0.008439 -0.009935 0.0041817 0.0091974 -0.0068454 0.00593 -0.0081125 0.0097461 -0.0059958 0.0063661 -0.007349 -0.006814 -0.0091767 -0.0056274 -0.0046649 
biro__label__book_store -0.0060704 -0.0088072 0.0020259 -0.0056735 -0.0061842 -0.0061396 0.00060272 -0.0072849 0.0025583 0.0078888 0.0029445 -0.0041337 0.0083007 0.0069888 -0.0069793 -0.0021348 0.0054954 -0.003751 0.0056328 -0.0065994 0.0097425 0.0021682 -0.0019558 0.0048688 -0.0067676 0.0056779 0.00064148 0.0016779 -0.0078941 -0.0025117 0.0075504 -0.0069083 -0.0073141 0.0045916 0.0084316 -0.0086381 0.0021933 0.0037733 -0.0099565 -0.0074977 -0.0097122 -0.0020638 0.0059096 0.0026452 -0.0096392 -0.0079876 -0.0050951 0.0013395 0.0083158 0.0040398 -0.0069993 0.0051847 -0.0012139 0.0097387 0.0044545 -0.0084319 -0.0063518 0.00040321 -0.00019917 -0.0083157 -0.0011659 0.0034431 -0.0032365 0.0053735 -0.0043494 -0.00032641 0.0097936 -0.00068313 0.0048427 -0.0053505 -0.0095692 0.0057888 0.0038411 -0.0038087 -0.0088198 -0.0031479 -0.0042385 0.0033791 -0.0039585 -0.0064982 0.00081673 0.0068371 -0.0039744 0.0034856 -0.0010293 -0.005576 -0.0031042 -0.0063804 0.0063272 -0.0026729 0.0039426 0.0080074 0.0040386 0.0096744 0.0002599 -0.0032676 -7.288e-05 0.0085602 0.0033979 0.0036664 
foolscap__label__book_store 0.0015915 -0.006414 -0.0049725 0.0026583 -0.0073783 -0.0064752 -0.00079674 0.001557 0.0051605 0.0026944 0.0093711 -0.00031625 -0.0054376 0.0081633 0.0068355 -0.0062071 -0.0035675 -0.0068312 -0.0059011 -0.009526 -0.0034498 0.0045733 -0.0080196 0.0014697 -0.0038452 -0.0051297 -0.0042662 -0.0064639 -0.0018058 0.0095193 0.0068225 0.0098794 -0.0085128 -0.0037604 -0.0033572 -0.00051737 -0.0030588 -0.0056611 0.0049532 0.0017023 -0.0041903 -0.0085111 -0.0040134 0.0015236 0.0063754 0.0056463 -0.0065707 -0.0048748 0.0032976 -0.0082267 -0.0097774 0.0071876 -0.0077478 -0.0045308 0.0087735 -0.0075215 -0.0070898 -0.00025721 0.0018012 -0.0016872 0.0043156 -0.0028492 0.007753 0.0099163 0.0076466 0.0049553 0.0051674 -0.0013866 0.00084025 0.00015729 -0.00086902 0.0080632 -0.0053735 0.00051584 -0.0084671 0.0045013 0.005838 0.0066146 0.0068854 0.00083006 -0.0034352 0.0017308 0.0055053 0.0074116 0.0091144 -0.009761 -0.0034024 -0.0066902 -0.002507 -0.0043944 0.00055467 -5.413e-05 0.0034568 0.0052483 0.008225 -0.00060993 -0.008911 0.0046732 -0.0026735 3.6537e-05 
herbal 0.0080289 -0.0069873 -0.0043411 -0.0011721 -0.0043623 -0.0095934 -0.0092768 0.004874 -0.0044114 -0.004997 -0.0084622 -0.0034014 0.0065723 0.0054375 -0.009265 0.0053876 -0.0029964 -0.0071146 0.0014968 0.0065213 -0.0012467 0.0077055 0.009909 0.0077173 -0.0099096 0.001522 0.0074827 0.0058125 0.0041264 0.0084749 -0.00633 -0.0040655 -0.00020139 0.0034219 -0.0018331 0.0093281 -0.0047513 -0.0080059 -0.0048638 -0.0044005 -0.009672 -0.0073034 0.0022664 0.00082658 -0.0061639 -0.0079474 0.0013879 0.0049573 0.0078302 0.0086679 -0.0017167 -0.007715 -0.0038282 0.0062853 0.0055433 0.009103 0.0096148 0.0049176 0.0015034 -0.0039482 -0.00027204 0.00030731 -0.0029056 -0.0011617 0.0084651 0.0039464 0.0084457 0.0019765 0.00081468 0.0097096 -0.0023394 0.0087797 -0.0067906 0.0048876 -0.0042049 0.0012301 0.0025892 -0.0069173 0.0066995 -0.0087942 -0.0020967 0.0047717 0.00034796 -0.002885 0.0086426 0.0062463 0.0035977 0.0033882 0.0020432 0.0087043 -0.00068713 -0.0028806 -0.0099167 0.0067926 0.002684 0.0039166 -0.0095126 -0.00050527 -0.0025136 0.0020943 
scrawl__label__book_store -0.0064246 0.0076526 0.0060553 -0.0047639 -0.0071304 -0.0077427 -0.0056034 -0.0083646 0.0011318 0.00025553 0.004125 0.0072029 0.0016738 0.0086936 -0.0012338 -0.0039484 -0.0062968 0.004942 -0.00033023 -0.0094081 -0.0026152 -0.0097953 0.0032898 -0.0029456 -0.0086515 0.00080529 0.0043161 -0.0089825 0.0087151 0.0073928 -0.0073908 0.0038131 -0.0055133 0.0046578 0.0065876 0.0038243 0.0071759 -0.0064014 -0.0019205 -0.0046415 -0.0061867 -0.0036625 0.0007682 -0.0031776 -0.008331 0.00033079 -0.0053971 0.009719 0.0037879 -0.0086496 -0.0032711 0.00043612 -0.0083668 -0.0091072 0.0019854 0.007492 0.0064077 0.0090206 0.0097548 0.0060584 -0.0075539 9.5497e-05 -0.0067222 -0.0073082 0.0099125 -0.0011416 -0.00044169 -0.007612 0.0087152 -2.502e-05 0.0055228 -0.0079413 0.0055917 0.0034337 0.00042101 0.0095344 -0.0025152 -0.0029918 -0.0074992 -0.002807 -0.0068398 -0.00029172 0.0072037 -0.007775 0.00040044 -0.0068814 0.003265 -0.0079707 -3.295e-06 0.0046415 0.003184 0.004659 -0.0074544 0.0030686 0.0088867 0.00684 0.0075624 0.0014933 0.0063261 0.0056466 
restaurant__label__department_store -0.0063399 0.0097961 -0.0055119 0.0056702 0.0056936 -0.006453 0.0041412 -0.0071307 -0.00057618 0.0032114 -0.0043082 -0.0029367 0.0056287 -0.0061894 -0.0052826 0.0037082 0.001622 -0.0024689 -0.0038488 -0.0067578 -0.0088746 0.0038182 -0.0021851 -0.0023286 0.0063625 -0.0076525 0.0011203 0.0085476 -0.0026232 0.0084308 -0.0090702 -0.0062223 0.0025242 0.0010268 -0.009913 -0.0074023 0.0087928 -0.0075038 0.0032591 0.0013008 -0.0034454 0.0044248 0.0064883 0.0062729 0.0013352 0.0062004 0.0070617 -0.0057112 -0.0024753 -0.0043579 0.0021453 -0.00070928 0.0010067 -0.0068471 -0.0058739 0.0043644 -0.0070121 0.0063097 0.0087646 0.0066259 0.0015113 0.004058 -0.0084192 -0.0095035 -0.0093485 0.0011905 -0.0075426 0.0063571 -0.0088845 -0.007878 -0.0093783 -0.0081501 0.0037651 -0.0072109 -0.0083575 0.0042254 -0.0095554 0.0016067 0.0088985 0.0028087 -0.0055507 -0.0044516 -0.0045343 -0.00026016 -0.0090559 -0.0026576 0.0059085 0.00095718 0.0097592 0.0094257 0.0072468 0.0032776 0.00272 -0.0044001 0.008567 0.0079479 0.0029709 -0.0082491 -0.0021792 0.0033388 
gin__label__department_store 0.0023308 -0.0050192 0.0045915 -0.0010139 0.00061695 -0.0053054 -0.0033758 0.0088377 -0.00091792 -0.0003437 -0.0066835 -0.00067345 -0.0031115 0.0013974 -0.0088132 0.0048689 -0.0029259 0.0067333 -0.0022674 -0.0073274 0.0047039 -0.0065878 0.0024408 0.0048996 -0.003491 -0.0063174 -0.0042736 0.0095544 0.0076685 -0.0035513 0.0074355 -0.0051275 -0.00047513 -0.0017192 0.005475 0.0079 0.0095465 -0.0052455 -0.0011759 -0.003007 0.0074432 0.0036392 -0.0034247 -0.0090067 -0.00071098 0.0023542 0.0076725 -0.00092797 0.0062759 -0.0048285 -0.0090827 -0.0064158 0.0032727 -0.0054016 0.0002646 0.00011291 0.0064169 -0.0067663 0.0094099 -0.0093962 0.0019978 -0.0022056 0.0077393 0.0099071 0.0019792 0.0063124 -0.0055793 -0.0063553 0.0041479 0.0066759 0.0035323 -0.0017188 -0.007558 0.0036707 -0.0037161 0.0028722 -0.0073377 -0.006474 -0.0095293 -0.0039312 0.0093064 0.0013485 0.0067647 0.0062837 -0.0091223 -0.0058818 -0.0024041 0.0010265 0.0066439 0.0093816 -0.0081798 0.0047899 0.0050541 0.0095531 0.0080153 -0.0097611 -0.0036078 0.00048825 -0.0063014 -0.0062815 
soap__label__department_store 0.0013409 -0.0065888 0.0036185 0.0073015 0.0052675 0.0065574 -0.0050982 -0.0039618 0.0026356 0.0048774 0.00224 -0.0049247 0.0055384 0.0027526 -0.0021174 -0.00403 0.0098887 0.002278 -0.0053131 -0.0099176 -0.0039946 -0.0054777 0.009834 -0.0059974 -0.0024699 0.0025995 -0.0073404 -0.0034368 0.0036179 0.0082276 0.0046844 -0.0092505 0.004905 0.0029758 -0.005721 0.0058561 -0.00075242 -0.0090209 0.0083484 0.0017919 0.0038069 -0.0027551 0.0048817 0.0090627 0.0056092 -0.0099682 -0.0097049 -0.00058296 -0.0063752 0.0080559 0.0019126 -0.0084279 -0.0020892 0.0086306 -0.0071949 0.0087914 -0.0039386 -0.0087363 -0.0013995 0.0074382 0.0094949 -0.0063544 -0.0068432 0.0016798 0.0015264 -0.0026929 -0.0097139 0.0020678 -0.0074346 -0.0094428 -0.0010299 0.0022038 -0.0051245 0.0054303 -0.0053781 0.0085503 0.0038362 -0.0067374 -0.001287 -0.0080003 -0.00086629 -0.00027423 0.0035376 -0.009454 -0.0095472 -0.0046638 -0.0078602 0.0058681 -0.0020315 0.00012659 -0.0030215 -0.00079304 -0.0067051 -0.005444 0.0016743 0.00075947 -0.004801 -0.0071101 0.0099722 -0.00069027 
cup__label__department_store -0.0033395 0.0050096 0.0014934 -0.0082633 -0.0096817 0.0077437 0.0045493 0.0079168 0.005525 -0.0050783 0.0066838 -0.0038685 -0.0009386 -0.0023785 0.0087689 -0.0048108 -0.0079852 -0.0078778 0.0016554 0.0035695 -0.0076913 -0.0082749 0.0058708 0.0096597 0.0049002 -0.0050978 -0.006657 0.0085649 0.0084381 0.0019655 -0.0037392 -0.0030978 0.00017196 0.0086192 -0.0049482 0.0018988 0.00414 0.0057298 0.0081277 -0.0072569 0.0026245 0.0089095 -0.005475 -0.0018271 0.0025749 -0.0077327 -0.0049022 0.0030043 0.0057315 0.0074506 -0.0020649 0.0020027 0.0023164 0.0029651 0.004344 0.0057683 -0.0088442 -0.0075885 -0.0070014 -0.0097924 0.0021484 -0.0078286 0.0089155 -0.0079972 -0.0032393 -0.0017359 -0.0052922 0.0040739 -0.0046803 -0.0075365 0.0054866 0.0080723 0.0072039 0.0067397 -0.0091189 0.0095866 -0.00021173 0.005238 -0.0011542 -0.0079713 -0.0019041 -0.0018716 0.0025697 0.0051402 -0.0051774 0.0079786 0.0090377 -0.0024389 -0.0015673 0.0093717 -0.0059365 -0.0043644 -0.0018846 0.0084737 0.00068762 0.0056593 -0.0020879 0.0091995 -0.0063146 0.0077303 
caligraphy__label__book_store 0.0022231 0.0035958 -0.0067293 -0.0044004 0.0010102 -0.00055249 0.0062674 0.0060658 0.0025936 -0.00011499 -0.0063672 -0.00080842 0.0063793 0.0059262 0.0078812 0.0003958 -0.0019794 -0.0098802 -0.0046547 0.00072919 -0.0034675 0.0010434 0.0074534 0.0038804 0.0016597 0.0043859 0.00095025 0.0088251 -0.0028887 -0.0076893 0.0040379 -0.0043936 0.0043748 0.0099801 -0.0076322 -0.0013386 0.008158 0.0085643 -0.0061102 -0.0026264 0.0010108 -0.0077804 0.0066507 -0.0075134 0.0094626 -0.0066279 -0.0064174 0.0070178 -0.0064248 -0.0060373 0.0008738 -0.0055566 0.0071011 0.0040813 0.0094419 -0.0074118 0.0029721 -0.0066704 -0.0056004 0.0044568 0.0095448 -0.0047238 0.0041592 -0.0077574 0.0025159 0.00079526 -0.00557 0.0056793 0.008156 -0.0068003 0.0056876 -0.0084288 0.0015393 -0.0095054 -0.0091987 -0.00086541 0.005874 -0.0038565 0.0065176 -0.0031568 1.374e-05 -0.0026598 -0.00048672 -0.0061299 -0.0033063 0.0067474 -0.0046253 -0.0048404 -0.0079038 -0.0022604 -0.0022019 -0.00355 0.0011568 0.001681 -0.0058111 -0.0098675 -0.0024131 0.0060616 -0.0040043 0.00070944 
whitener__label__department_store -0.0037968 0.0090416 0.00034697 -0.0025208 -0.009158 -0.0080041 -0.0024033 0.0056672 0.0052571 -0.0013336 0.0041747 0.0056797 0.0020984 0.0017167 0.0074166 -0.0061357 0.0096577 -0.00062125 -0.0097794 0.0019197 -0.0040302 -0.0017797 -0.0037359 0.0062947 -0.0014133 0.0037456 0.0050796 0.0045642 -0.0013349 0.0025981 -0.0019498 0.0082397 -0.0058522 -0.0087924 -0.0053963 -0.0082085 0.005476 -0.00067409 0.0075443 0.0047701 -0.0077951 -0.0030317 -0.002227 -0.0089378 -0.0002603 0.0083083 0.0074812 -0.0098332 -0.0068088 -0.0038085 2.6741e-05 -0.0024583 0.0086699 -0.0067498 0.0077115 -0.0049061 0.0060296 -0.0030331 0.0082247 -0.0097876 0.0078529 0.0045128 0.0053481 -0.00082102 0.0043666 0.0086723 -0.0092166 0.0099356 0.008849 0.00019068 -0.0032368 0.008922 0.0097044 0.00046455 0.0085618 0.0035026 0.00036372 -0.0051953 -0.0050765 -0.0081524 -0.0086467 0.0025985 -0.0074617 0.0094503 -0.0084526 -0.0027942 -0.00072985 -0.0058123 0.0036092 0.0059337 0.0061937 -0.0039332 -0.0057065 -0.00070656 0.0047219 0.007986 -0.0012798 -0.0095395 -0.0017421 0.0024402 
stylus__label__book_store -0.0008798 -0.0015406 -0.0017365 -0.0011069 0.0025497 0.0024358 -0.0090864 -0.0041131 0.0024987 0.0053668 0.0072116 0.006443 0.0069671 -0.0055042 -0.0049887 -0.0075214 0.0090408 0.0043535 -0.0075965 -0.006768 -0.00091608 -0.0026745 -0.0099882 -0.0071643 0.0094957 -0.0084007 0.0089549 0.00060169 0.0064657 0.00054815 0.00026872 0.0072137 0.0056708 0.0037107 0.0079179 0.00062812 0.0071763 0.0037942 0.0092759 0.009084 0.0029936 0.0092136 0.0067867 -0.0075907 0.0010896 -0.001083 -0.0031256 -0.0017228 0.0099136 0.0097436 0.0042896 -0.0031613 -0.0011889 0.0033763 0.0066336 0.0097353 7.11e-05 -0.0093139 0.0088577 0.0085421 0.0043803 0.0034416 0.0030688 0.007835 5.4909e-05 -0.0016531 0.0062238 -0.0023918 0.0076476 -0.0030014 0.0078718 -0.0075323 -0.0090795 0.005962 -0.0088968 0.00040099 -0.0054589 -0.0099795 -0.0085947 0.0020373 0.0028284 -0.0023117 0.0094112 0.0089957 -0.0069407 -0.00025658 0.00063078 0.0078225 -0.0094268 0.0067726 0.0049282 -0.0081978 -0.0075529 -0.0025161 -0.0045113 -0.0057604 0.00068716 0.0010695 0.0041762 -0.0060761 
medical -0.0071723 0.0034517 -0.00058184 0.007337 -0.0012829 -0.0088303 -0.0088098 0.0059728 -0.0035251 -0.0086906 0.0095573 0.0083473 -0.0053681 0.0089102 -0.0097309 -0.0072521 0.00052899 0.004384 -0.00049229 0.007896 -0.0050355 -0.0089802 -0.0017552 0.0076994 -0.00083784 -0.0091978 -0.00015741 -0.0071181 -0.0031002 -0.00062243 -0.00043468 -0.0096693 0.0071227 0.00089128 -0.0034677 0.0078644 -0.0053879 0.007521 0.00039873 0.0042572 -0.0098143 0.0048898 0.0062498 -0.0064672 0.0016619 -0.0084402 0.006708 -0.0055549 -0.0080091 0.0084817 0.0015141 -0.0041701 0.0033363 0.0027782 0.0025385 0.0056953 -0.0098026 0.0089908 -0.0012077 -0.001255 0.0014 -0.0017549 -0.00024392 -0.0005524 0.0022334 0.0038779 0.0031996 0.0035731 0.0058504 -0.0015152 0.0067695 0.0054708 0.0089866 -0.001276 0.0039623 0.0017017 0.0043448 -0.0071176 0.0017808 -0.0052991 0.0015331 0.0062008 0.0080172 0.0075616 0.0075459 -0.00043959 -0.0069708 -0.0015763 0.0058004 -0.0040993 0.0090866 -0.0062881 0.00877 0.00024484 -0.0081872 0.0050803 0.0021203 0.002866 -0.0061432 -0.0092608 
washing 0.005276 0.0019926 -0.0045976 -0.007003 -0.0054647 0.0042999 -0.00074629 -0.00029869 -0.0067388 -0.0016412 0.0024449 0.0078305 0.0026389 0.0026627 0.0019075 -0.0063189 -0.0011611 0.0020078 0.0095601 -0.003182 -0.0025798 -0.0095513 0.0069691 -0.002868 -0.0030258 -0.0099297 -0.0018795 -0.0030511 0.0087625 0.0066981 0.0053081 0.0043971 -0.0006546 0.00074511 0.0046805 0.0054239 0.004796 0.0080897 -0.0099764 -0.0082256 0.0028034 0.0091455 -0.008826 0.005628 0.0029743 0.0059141 0.0060074 0.0033775 0.0066547 0.0089727 -0.0039199 -0.0065025 0.00055536 0.0093933 -0.0015626 0.003138 0.0051112 0.0082954 0.0064569 0.0034819 0.006178 0.006587 0.006637 -0.0012904 0.0021096 0.0024247 9.1659e-05 0.00052616 -0.0079439 -0.007331 0.0020814 -0.0038994 -0.0022713 -0.0053629 -0.0069931 -0.00043622 0.007215 -0.0020183 -0.0096111 -0.0085408 0.003448 0.0010392 0.0017548 -0.0075051 -0.0090805 -0.0012399 0.0051198 0.0063888 0.0081902 0.00073211 -0.0029216 -5.3175e-05 0.0088885 -0.0084858 -0.0032483 -0.0080913 0.0044089 -0.0054412 0.0042183 0.0047519 
bleach__label__department_store 0.0096808 -0.0050453 0.0047128 0.0082371 0.0054327 -0.0038326 0.0042978 0.0072394 0.001108 0.0018202 -0.0041661 0.0097524 0.0055675 -0.0060383 0.0087539 0.0014771 -0.0058097 0.0080635 -0.0015216 0.0027824 0.0072692 -0.0087092 0.0065775 0.00030435 0.0033174 -0.0052043 0.004989 0.0050398 0.0043287 -0.0071783 0.00031284 -0.00058416 0.0054531 0.0096899 0.0047154 0.0062178 0.0014242 -0.0032092 -0.0064012 -0.0060464 -8.6252e-05 0.0081778 0.0029188 -0.008482 0.0070434 -0.0054217 0.0085735 0.0066797 0.0047954 0.0015183 -0.00074247 0.0038751 0.0022448 0.0056191 0.0056516 -0.0082321 0.0091429 -0.0039941 -0.0023648 -0.0067894 -0.0014728 -0.0082638 0.0075151 0.00060593 -0.0040348 0.0081446 -0.006481 0.00065525 0.0015328 -0.0089925 0.0055631 -0.0046164 -0.00044526 -0.0083273 0.0059427 -0.0031278 0.0011917 0.0026354 0.002074 -0.0072546 0.0080569 -0.0091879 0.0025531 -0.0055636 0.0072125 -0.0071174 0.0011604 -0.0028405 -0.0035859 -0.0062279 -0.0018934 -0.0072465 0.0054473 0.0037864 0.0099354 0.0054201 -0.0062725 -0.0054797 0.0013467 -0.00037969 
powder__label__department_store -0.0020829 0.0087381 -0.0044153 -0.0023386 -0.0051906 0.0056451 -0.0060165 0.0095078 0.0040909 -0.0085558 0.0035997 -0.0051228 -0.0084565 0.00098236 -0.0028008 -0.0063562 0.0089558 -0.0083576 0.0030266 0.0088052 -0.0031608 -0.0067877 -0.0080644 0.0071144 0.0065241 0.0073405 0.002893 -0.0097191 0.0049269 -0.0036984 0.0085953 -0.0072897 -0.0099059 -0.0019877 -0.0068229 -0.00032638 -0.0021335 0.0031198 -0.0062637 0.0076936 0.0059695 -0.0085045 -0.0079716 -0.0077602 0.0074603 0.00966 0.0074153 -0.0055344 -0.0042674 -0.003469 -0.0079939 0.00012217 -0.0043559 0.0098488 -0.0056032 -0.0012575 0.0069156 0.0028314 -0.0049749 -0.0085741 0.0067121 -0.0048642 -0.0079141 0.0013412 1.1323e-05 -0.0073962 0.0015285 -0.0040037 0.0027124 -0.0028158 -0.0054574 -0.0072327 0.0048116 -0.00723 -0.0091327 0.00033524 0.0084265 -0.0051515 -0.009331 0.0050782 0.0088009 -0.0097332 -0.001757 0.00033622 0.0039283 0.0049425 0.0078979 0.001511 -0.0067835 -0.0001848 0.0050389 0.0095556 -0.0019502 -0.0027838 0.0048177 0.00052642 -0.0010606 0.0098015 -0.0076025 -0.0017849 
in__label__jewelry_store 0.0023477 0.0087364 0.0083115 0.0067352 0.0079318 -0.0088379 -5.9118e-06 -0.0054104 0.0066191 0.0002235 -0.0033528 0.0056257 -0.0095622 0.0098841 -0.0025333 0.0044662 -0.0022215 0.001895 0.0089559 -0.00089483 -0.0083224 -0.0095578 0.00072644 -0.0089212 -0.0048102 0.0065479 -0.0051025 0.0089375 0.0045601 -0.0063825 -0.008791 0.0091477 -0.0050502 0.008556 0.0022871 0.0006027 -0.003481 -0.0083961 -0.0083207 0.0064895 -2.1048e-05 0.006327 -0.0071034 -0.0047787 -0.0058117 -0.00096247 -0.00022109 0.0048637 0.0097682 0.0017282 -0.0012362 -0.0028603 4.6119e-05 0.0092382 0.0074222 0.0010628 -0.0027675 0.005704 -0.0099994 0.0047037 0.0052432 0.0098392 -0.0063199 0.0020218 -0.0033032 0.0095131 -0.0032876 -0.0037922 0.0083473 -0.00019561 0.0081777 -0.0026368 -0.0014154 0.0062328 0.0040995 0.0088826 0.0086165 -0.0050118 -0.0017053 2.7514e-05 -8.9437e-05 -0.007449 -0.0027596 0.0014368 0.00011473 0.0093496 -0.001432 0.0022335 -0.0099297 -0.00062341 -0.0085084 0.0085342 0.00029352 0.0091482 0.0014824 0.0022484 0.0036476 -0.0098496 0.0074687 -0.0082198 
magazine__label__book_store 0.0029601 -0.006255 0.0028794 -0.0063873 -0.0096358 0.0081787 0.0076076 0.0045306 0.0074911 -0.0023457 -0.0098131 -0.0060227 -0.00071368 -0.0013744 -0.0012064 -0.0054477 0.0086559 -0.0023212 0.0038553 0.0045033 -0.0097423 0.0023409 0.0098881 -0.004734 -0.0026485 -0.0065374 -0.0071046 0.0040417 -0.0037867 0.0058315 0.0064183 0.0048619 0.0062162 0.0039164 -0.0059406 0.0088056 -0.0031517 0.0081813 -0.0018745 -0.008129 0.0064774 0.003068 -0.00096541 0.0095289 0.0062105 -0.0026628 -0.0010377 -0.0056389 0.0059359 -0.0087837 -0.0037882 0.0087539 0.0078668 -0.009073 0.0083905 0.0068997 -0.00025041 -0.0012761 0.00098929 0.0036246 -0.0012097 -0.0084494 -0.0091368 -0.0030996 -0.0016671 -0.0012001 4.5824e-05 -0.0030352 0.0080403 -0.0060463 -0.0080458 0.0039395 -0.0084218 0.0032542 0.0092505 0.0063342 0.0027438 -0.0027239 0.0024441 -0.0017088 -0.0044203 -0.0022513 -0.0046085 0.0074046 0.0089887 -0.0024785 -0.0046523 0.0050486 0.0032049 0.0087675 0.0062019 0.0068538 0.003091 -0.0072659 -0.0057064 0.0060715 -0.0042699 -0.0086479 -0.00031897 0.0054856 
juice__label__department_store 0.0069433 -0.0066582 -0.00025071 -0.0015479 0.00029545 -0.0013639 -0.0057627 -0.00058357 -0.0011494 0.0070418 0.0063607 0.0059358 0.0047959 -0.0041582 -0.0075089 -0.0079388 0.0095349 0.0036383 -0.0074236 -0.0037708 0.0064348 -0.009898 -0.0070287 0.0052262 0.0010876 0.0068873 -0.004714 -0.00034877 -0.0037804 0.00074198 -0.009212 -0.0059542 -0.0042754 -0.0077653 0.0081711 -0.00056017 -0.0036429 -0.0098483 -0.0063587 0.0011718 -0.0069105 0.0085841 -0.00027732 -0.0088106 0.0024634 0.0065649 -0.0076402 0.0066621 0.0013186 -0.0080038 0.0021538 0.0079989 -0.0034452 -2.8203e-05 0.0040387 0.0094699 -0.0098546 0.007742 0.006647 0.0052446 -0.0048681 -0.0061816 0.0087311 0.0025171 -0.0075571 -0.0090486 0.0014784 0.0032001 0.004596 -0.0079405 0.0029383 -0.0030853 -0.0066333 0.001046 0.0071348 -0.0022959 0.0060768 0.001647 0.0025347 -0.0011614 -0.00033975 0.0096299 0.0057052 -0.0035855 -0.0064876 0.0028597 -0.0031989 0.0064262 0.0074933 -0.0023637 0.0052804 0.0081449 0.0062247 -0.0068338 0.0067595 -0.0047894 0.0061298 0.0098555 -0.0026393 0.0048432 
laundry 0.0040724 0.0074475 -0.0096964 0.0048016 0.0088341 -0.00041813 0.0054037 -0.0038127 -0.0020651 -0.0053578 0.0093118 0.0054319 0.00083528 0.001608 0.0093295 0.0038037 0.004026 0.0060499 0.005596 0.00080179 0.0028843 0.0019049 -0.0018325 0.00919 -0.0081718 0.0049806 -0.002955 0.0011076 -0.0070498 0.0010657 -0.0025098 -0.0041452 0.006024 -0.0069458 0.0078005 0.0066623 -0.00043222 0.009637 0.0007207 0.002195 -0.0072221 0.0036137 -0.0016735 0.0075923 -0.0046825 -7.708e-05 -0.0072636 0.0042301 -0.0035208 -0.0062125 -0.0022209 0.0034851 -0.0046553 0.009758 0.00067858 -0.0047392 0.009278 -0.0051166 -0.0059615 0.0081863 -0.0046068 0.0029235 0.0051351 -0.0068908 0.0052097 0.009376 -0.0086503 0.006053 0.0028897 0.0078443 -0.00045683 -0.0063197 0.0097605 0.0039401 -0.0093428 0.0044429 -0.0056189 0.0042283 -0.00012301 0.0045156 0.0022362 0.0023625 0.0019764 -0.0079522 -0.0078835 0.0050891 0.00057548 -0.0092207 -0.0057053 -0.0088688 -0.0077518 -0.00038831 -0.0080407 0.0088581 -0.0054843 -0.0086668 0.0092058 -0.0026126 -0.0099862 -0.0042123 
notebook__label__book_store -0.0078116 0.0084751 -0.0035501 -0.0098279 0.0082461 -0.0091706 -0.001998 0.004077 0.0037393 0.005661 -0.0038524 0.0033675 -0.0014102 -0.0094139 -0.0065503 -0.0004126 -0.0055929 0.0050116 0.00019993 -0.005071 0.00066193 -0.0069418 0.0030582 -0.0092858 -0.0062061 0.0021464 0.0036964 0.0046936 -0.0017056 -0.0016608 -0.0065829 -0.0061211 -0.0078028 0.0028912 0.0015697 0.0018934 0.0044288 0.0059485 -0.0039686 0.00025322 -0.0019339 0.0044463 0.0044 0.003497 0.0042491 0.0034765 -0.005219 0.0088474 -0.0082958 0.0039096 0.0048959 -0.0030269 -0.004809 -0.0066611 -0.0071189 -0.0030734 -0.0078173 -0.0037149 0.0032868 0.0079552 0.0011138 0.0011961 -0.0060081 0.00086103 0.0091827 -0.0029369 -0.004057 0.0098906 -0.007813 -0.0045257 -0.0072984 -0.0017456 0.0020794 -0.0058489 0.0011795 0.0033585 -0.00097825 0.0097994 -0.008858 -0.0033655 -0.0060359 -0.0026117 0.0095353 -0.0098617 -0.0051354 -0.0063882 -0.0035698 -0.0033628 -0.005867 0.0082952 -0.00018521 0.0045883 0.0041319 0.0091182 -0.0061759 -0.0020846 0.0038421 0.0066933 0.0022455 0.0075863 
gel__label__department_store 0.0012153 -0.0072066 -0.0011954 -0.0092539 -0.007207 -0.0051168 0.0077725 -0.0054178 0.0096986 -0.0099686 0.0022488 0.0060625 0.0030167 -0.0069862 -0.00098708 -0.0030918 -0.0092192 0.0068273 -0.0048454 0.0023557 -0.0033821 -0.0068537 0.0082708 0.0098757 -0.00056141 0.0067197 0.0077013 -0.0024236 0.0085216 0.009473 0.0070999 -0.0012022 0.0054509 -0.0087141 0.0093854 -0.0055502 -0.009522 0.007131 -0.00011891 -0.0044222 0.0089578 0.0092615 -0.0048051 0.004675 -0.0083974 -0.0054924 0.0045535 -0.0066738 0.0042723 0.0062291 -0.0030577 -0.00056764 -0.0020607 0.007178 -0.0087986 0.0033674 -0.0099778 0.0013235 0.0013289 0.0092888 0.0071251 0.0092119 -0.00719 -0.0082125 0.0026431 0.0097655 0.0089322 -0.0077998 0.0095151 -0.0079783 0.0004558 0.0064048 0.0010119 0.001022 0.0037692 -0.0065519 0.0030403 0.007911 -0.0020036 0.0098643 0.0063447 -0.0021947 -0.0088187 -0.0062736 -0.0083809 -3.9141e-06 -0.00089771 -0.00051222 0.0034888 0.004274 0.007875 0.0041004 -0.0034515 -0.0035738 -0.0037081 -0.0054843 -0.0033656 -0.008967 0.0092195 -0.0082 
astringents__label__department_store -0.0044535 0.00060494 -0.0056769 -0.0070069 -0.0051641 0.0040735 0.00010802 -0.004642 0.0040603 0.00065977 0.0030226 0.0098387 0.0098334 0.0027176 0.0087173 0.005575 0.0082371 -0.0094193 -0.0037074 -0.0012001 0.0096733 0.0064527 -2.0305e-05 0.0031483 -0.0038939 0.0097869 -0.0064157 0.0084226 0.0024944 0.0028089 -0.0052851 -0.0082488 -0.0028896 0.00031136 -0.00098742 -0.0023865 -0.0067973 0.00082292 0.0046246 0.0096737 -0.0041019 0.0083679 -0.0077872 0.0083012 0.0027993 -0.0021753 -0.0045524 -0.0047681 0.0017727 0.0051821 -0.0037396 -0.00078072 3.8516e-06 0.0014476 -0.0088956 0.0067004 -0.0012785 -0.0031543 -0.0099742 -0.007054 0.003389 0.0026736 0.0015649 0.0069916 0.0079577 0.0076519 0.0064173 0.0073079 -0.0078572 -0.00086594 0.0084926 -4.7722e-05 0.0039004 -0.00882 -0.0063304 0.0081428 -0.0012713 0.0010093 -0.00070551 -0.0095428 0.0048213 0.00062652 0.0059544 -0.003675 -0.00032572 0.0058954 0.00453 0.0099002 -0.0080785 0.0084738 -0.0053863 0.0096525 -0.0031308 -0.0008065 -0.0063066 0.0016969 0.0093398 -0.0019422 0.0045765 -0.0038987 
turkish -0.0010165 0.00058092 0.0018891 0.007167 -0.0053266 0.003849 0.0042854 -0.00043025 -0.0020188 -0.0053879 0.0031232 0.0030817 -0.0055839 0.0047371 -0.0005912 0.0098683 -0.0052196 -0.0080087 0.0069629 -0.0011103 -0.0011746 -0.0050095 -0.0014362 -1.1681e-05 0.0054688 0.0026885 0.004321 0.0072438 -0.0034495 -0.0060855 -0.0018703 -0.0023947 0.0032803 -0.0017164 0.007419 -0.0020483 -0.004583 0.0034571 0.0040341 0.0012338 0.0090034 0.0092796 0.0092976 0.0095733 -0.0067099 -0.0011562 -0.0021646 0.00073444 0.0024382 0.0071294 -0.0060554 0.0061763 -0.0037901 0.0061248 -0.0057197 -0.0092999 -0.00062374 -0.0016352 0.0079907 0.0096156 -0.0021009 -0.00975 0.0023514 -0.0071797 -0.0070126 -0.0049866 -0.0063232 -0.002282 -0.0022671 0.0058423 -0.00095887 0.0059304 -0.003486 -0.0072152 0.0077764 0.0060665 0.0095166 -0.0043802 0.0060745 -0.006553 -0.0046236 0.0090505 0.0039521 -0.0067116 -0.0061758 0.0069899 0.0099031 0.0071631 -0.0072847 0.0029363 -0.00022921 0.0081212 0.005134 -0.0058797 -0.0081362 0.0008789 -0.0066517 -0.0014085 0.0081849 0.0055525 
black -0.0033991 -0.0074649 -0.0017829 0.0064658 0.0016642 0.0059769 -0.009636 0.0039609 0.0012627 -0.0089121 -0.0080803 -0.0048703 0.00051534 0.0030124 0.0081093 0.0092931 0.0059076 0.0085255 -0.0083952 -0.0066847 -0.00285 -0.0046818 -0.0010728 -0.0097442 -0.00087073 -0.0068731 0.0016549 -0.0016876 -0.0083042 -0.0065943 0.005424 -0.0011614 0.0044822 0.0078141 0.0022779 0.0046384 -0.0062596 -0.002168 0.0057587 -0.00088698 -0.0026801 -0.005694 -0.00062033 0.0088999 0.00020517 0.0077437 0.009265 -0.0050872 0.0019095 -0.0015692 -0.0067737 -0.0017586 -0.0099807 0.0067974 -0.0016365 -0.0048271 0.0073174 0.005226 -0.0052642 0.0045173 0.0066938 -0.0063663 -0.004069 -0.0036354 -0.0063215 -0.0015119 -0.0076421 -0.0051601 0.00032255 0.0052068 0.002515 -0.0017994 -0.0046949 0.0006042 0.00095418 -0.007318 0.00030125 0.0070487 0.0052682 -0.0015229 -0.0019911 -0.0070887 -0.00038223 0.0088914 -0.0064263 -0.0046827 0.0025915 -0.002463 0.001601 0.0062287 0.0040598 0.0099624 -0.0031883 -0.003696 -0.0041439 0.009941 -0.0065842 -0.0053757 0.0026484 -0.0072507 
story__label__book_store 0.0029968 0.0063633 0.0094529 -0.0036376 -0.0067766 0.0042426 0.0062747 -0.0016793 -0.0096833 -0.0044618 0.0075306 0.0089768 0.0062899 0.0029429 -0.0020933 -0.0072749 0.0015915 -0.0059919 0.0069454 0.0021306 -0.0042483 0.0041854 -0.002513 -0.0036281 0.00018054 -0.007282 -0.0052079 -0.0074786 -0.0047417 -0.0020218 -0.0039624 0.0012172 -0.005158 -0.0018345 0.004848 -0.0085725 -0.0057275 -0.0078923 0.0095712 0.0065004 -0.0093625 -4.7082e-05 0.006581 0.00024913 0.0008595 -0.004053 0.0007454 -0.0016838 -0.0094633 -0.008135 -0.0083217 0.0093137 0.0001444 0.0051556 -0.0084483 0.00038102 -0.0047048 -0.006499 0.0026883 0.0018508 0.009245 0.0040434 0.00094073 -0.0087959 -0.0034637 0.0090406 0.0040194 -0.0017993 0.0039167 0.0087244 0.0081535 0.0093658 0.0083276 0.0016673 0.0078115 -0.0047856 0.0091457 0.0020443 -0.0055655 -0.0044574 0.0097032 -0.0023201 0.00078888 0.0010352 0.009921 -0.0045209 0.0088308 -0.0065943 -0.0077458 0.0021445 -0.0064702 -0.0012132 0.0061992 0.0041912 -0.0022501 -0.0078405 -0.0079259 0.0054175 -0.0041326 0.0076483 
candy__label__department_store -0.0051417 0.0026422 -0.002894 0.0065848 0.0077456 0.0062965 0.0044791 -0.0057104 0.002749 0.0013156 -0.0011646 -0.0022459 -0.0048768 -0.0092134 -0.0024074 0.0090779 0.00028609 -0.00036668 0.0082163 -0.0063 -0.0024606 -0.0082745 -0.001308 -0.0093155 -0.0050608 0.0035308 -0.0042581 0.0008064 0.0039918 0.0097772 0.0035253 0.00048881 0.0029017 -0.001196 0.0088974 -0.0026006 0.00073333 -0.0092115 0.0016587 -0.0091138 -0.0085129 0.00072729 -0.00055416 0.0075229 0.0073285 0.0012981 0.0046897 -0.0056515 -0.005273 -0.0062819 -0.0087289 -0.0080602 -0.0066495 -0.0016586 0.0023653 -0.0039256 -0.0013958 0.0034165 -0.0022148 0.0098352 -0.0011718 0.0041858 -4.5979e-05 0.00035759 -0.0078099 0.0024855 -0.0064603 0.0058348 0.000511 0.0072776 -0.0094578 0.0062841 0.0069581 -0.005798 -0.0094412 -0.0018981 -0.0074945 0.0044061 0.0045581 -0.0039341 -0.0080232 0.0077102 0.0064133 0.0042727 0.0025957 -0.001992 0.0097648 0.0021299 0.0055849 -0.0087917 -0.0099108 -0.0026383 -6.6928e-05 0.0034595 0.0038494 -0.00059896 0.0066982 -0.0021354 -0.0068955 0.0017607 
lily__label__florist 0.0048863 -0.00099432 -0.0097471 -0.0051511 0.0070632 -0.0018791 -0.0069942 -0.0064106 0.0010901 -0.0049352 0.0098944 0.0056725 -0.006784 -0.0073828 -0.0077596 -0.0068064 0.0010811 -0.00028639 -0.0072545 0.0020034 -0.0027725 -0.0011993 -0.0039802 0.0035036 0.0023809 -0.0086398 -0.004063 -0.0030781 0.0027099 -0.00086296 0.008322 -0.0074843 -0.0021093 0.004942 -0.0025961 0.00035077 -0.004566 -0.0044431 -0.0085136 -0.0049284 0.0033504 0.0075193 -0.0014527 0.0042776 0.0092752 0.0045158 -0.0020778 0.0036837 0.0085566 -0.0073977 -0.0041454 -0.0088587 0.009546 0.0063669 0.001712 0.00048765 -0.005501 0.0034103 0.0020755 0.0031942 0.00058223 0.0034095 0.0069569 0.0067662 -0.0029303 -0.0083811 -0.0034716 -0.0044345 -0.0092939 0.0049026 0.0016131 -1.8476e-05 0.0016975 0.0020546 0.0067161 -0.0047898 -0.007462 0.0036003 0.0053702 0.0076399 0.0055266 -0.0021036 0.0031048 -0.0040087 -0.0072549 -0.0042451 -0.0044323 0.0075504 -0.006058 0.0010128 0.0068799 -0.0013268 -0.0032513 -0.0094977 -0.0040326 -0.0078099 -0.0094517 -0.0038685 -0.0039168 -0.0022396 
ballpoints__label__book_store -0.0053253 -0.001517 -0.0070703 0.00084895 0.0058811 0.0091487 -0.0017729 -0.0036255 -0.0016261 -0.0089142 -0.0042083 -0.008748 0.0093434 0.0025087 -0.0016054 -0.0046759 -0.0029284 -0.0069866 0.0030582 0.0065494 0.0012755 0.0099721 -0.00073318 0.0028667 0.0031693 -0.0013308 -0.0049161 -0.0010521 0.0061871 0.0079222 -0.0056933 0.0052224 0.0031655 -0.005245 -0.0010094 0.0092057 0.0070476 -0.0079156 -0.0090779 0.0084124 0.0011382 -0.0040981 -0.0078068 0.0078839 -0.0069176 0.00056131 -0.0037242 0.0029256 -0.0082551 -0.0084782 0.0059109 0.0011292 -0.0053209 0.00020277 0.0049031 0.00072277 0.005982 0.0019808 -0.00519 -0.0076291 -0.0096629 0.0087581 8.5865e-05 0.0093796 -0.0077622 0.0090644 0.0065919 0.0070332 -0.00033099 -0.0098719 0.00027207 -0.00021841 0.0033278 0.0061227 -0.0070876 -0.0065597 0.0074608 -0.0016795 -0.0085366 0.0084148 0.0042679 -0.0029178 0.00055686 0.0031799 0.0092328 0.004975 0.0035447 -0.006667 -0.0027623 -0.0018421 -0.0048692 -0.0018254 0.0032101 -0.00015836 -0.0039863 0.0043548 0.0068872 -0.006991 0.0043135 0.0016024 
cafeteria__label__department_store -0.0057846 -0.0091518 0.0014386 0.0043914 0.0057634 0.0021031 0.00058898 0.0086811 -0.006793 -0.006307 0.0030737 -0.0046413 -0.0096013 0.0054489 -0.0059622 0.001901 0.005609 -0.0076062 -0.0083084 0.0021279 0.0046697 0.0094999 -0.0064182 0.0078316 -0.0015088 -0.00616 0.0096578 0.0077266 0.0087304 -0.0037007 -0.0032268 -0.005929 0.0017389 -0.0066725 -0.0084278 0.0076037 0.0021054 -0.0080826 0.0045678 -0.006861 0.0097304 0.0088333 -0.0043956 -0.0030527 -0.0053553 -0.0066438 -0.003781 0.0038562 0.0051203 0.0078941 -0.0091231 0.0017254 -0.0034849 -0.0085452 0.0075579 -0.0060009 -0.0066264 0.0020251 0.0021922 0.0017398 0.0077858 0.0094998 0.0054373 -0.0056276 -0.00013625 0.0027555 -0.0069688 0.0030693 -0.0020512 -0.00079453 0.0044763 -0.0059079 -0.002842 0.0023596 -0.0033537 0.0081483 0.0066263 0.0041582 -0.0021626 0.00077165 0.0026643 0.0082589 0.0066241 -0.0063057 0.008209 -0.0029252 0.0044765 0.00010363 -0.0015225 -0.00014135 -0.0066313 0.0070058 0.0094365 -0.0094113 0.0015781 -0.0052674 -0.0039728 0.0077255 0.0072601 -0.0013204 
day__label__jewelry_store 0.0038856 0.00374 -0.0048814 -0.0076606 -9.76e-05 -0.0087292 0.0076331 0.0065834 -6.2266e-05 0.0054163 -0.0038369 -0.0069739 -0.0078455 -0.0056699 0.0023782 0.0040137 -0.0077029 0.0091367 0.0079266 0.00045691 0.0070954 -0.0039245 0.007334 0.0058149 -0.0042253 0.0018115 0.0081876 0.0022005 0.0066094 -0.0048868 0.00050799 8.4443e-05 -0.0090389 -0.0057369 0.0064812 -0.0018705 0.008769 0.0038018 0.0040204 -0.0066573 -0.0055767 -0.0084093 -0.00021416 -0.003938 -0.0063643 -0.0035054 -0.0080741 0.0064264 0.0068443 0.0042323 -0.0077322 0.00050011 -0.0081211 -0.0092222 0.0036232 -0.0049816 0.00062919 0.0099835 0.004117 -0.0044897 -0.0017615 0.0067855 0.0057348 -0.0044948 0.0097613 0.0097613 -0.0025633 0.0084641 -0.0095226 0.0037943 0.0090316 -0.0019895 -0.0065567 0.0088386 -0.0091005 0.0059386 0.0068688 0.0084532 0.0030996 -0.0032866 0.0087999 -0.0034198 -0.0093903 -0.0023077 0.0037971 -0.0027654 -0.0055317 0.0068606 -0.0021551 -0.00096802 0.0072158 -0.0019327 -0.0067371 -0.0017286 -0.0008118 -0.0020422 0.0061362 0.0083952 0.00040949 -0.0092582 
gas -0.004854 0.00099291 -0.0053856 -0.005673 -0.0068712 0.0049115 -0.0033617 -0.0048106 0.0074371 0.0038332 -0.0045841 0.0082436 0.0038712 0.0086336 -0.00066917 0.0014955 0.0050387 -0.0078484 0.0081304 -0.0083849 -0.0070342 0.0056193 0.0047235 0.006937 -0.0046572 0.0087886 -0.0010985 0.0050297 -0.002432 0.0045556 0.0078342 -0.0027002 0.0079652 0.0072368 0.0035115 0.0045585 0.0021652 0.0086547 -0.003068 0.00095211 -0.0035747 -0.0061361 -0.0088612 0.008815 -0.0052926 -0.0046613 0.0076022 0.008283 -0.0042952 -0.0017448 -0.0080531 -0.0078995 -0.0087178 0.0037296 -0.0054987 0.0031439 0.0093753 -0.0074901 -0.0046677 -0.0020131 0.0024278 -0.0057737 -0.0059715 0.0034185 0.0092538 -0.0042652 -0.0054013 0.0030056 -0.0039015 0.0091085 0.0021534 -0.0074284 0.0054166 -0.0038942 -0.0010556 -0.0020667 0.0089439 0.0053145 -0.00032658 0.0066151 0.0084183 -0.0045062 -0.0085694 0.00029951 0.0014536 0.00080264 -0.0091565 0.00025137 -0.0065774 6.8666e-05 0.0091374 0.00027553 0.0038584 0.00080567 -0.0037468 0.006069 3.2523e-05 -0.0048106 -0.0029814 0.0066926 
turn 0.0042345 -0.0011152 0.0072892 0.0099449 0.0025965 -0.008987 -0.0062317 0.0070004 0.0059959 0.0042527 -0.0032945 -0.0075328 -0.0074748 -0.0026476 -0.0089946 0.0018722 -0.0038423 0.0099014 0.0065483 0.0087417 -0.0014719 -0.0025132 0.0073454 0.0096972 0.0026283 0.0025207 0.0019916 0.0015461 -0.0032189 -0.0066447 -0.0024368 0.00082767 -0.0080826 0.0041682 -0.0074075 -0.0051921 -0.0030621 0.0053134 -0.0054977 -0.0016967 -0.0093521 -0.0093966 -0.0096981 0.00098179 0.0046918 0.0067563 0.0093758 -0.0032621 0.0017099 -0.0091423 0.0063169 0.00079579 0.006876 0.0041217 -0.0033526 0.0058587 -0.005942 0.0083338 -0.0089912 0.0040236 0.004445 0.0091743 -0.0056478 0.0049615 0.0058411 -0.0011343 0.0011055 0.009154 -0.0054629 0.0016697 0.0020997 -0.0048676 -0.0052936 0.0078895 -0.0011111 0.0026572 0.00072665 -0.0069048 -0.0074265 -0.0095913 -0.0062042 -0.0033139 0.0065994 -0.0051792 0.0070113 -0.0049685 -0.0046279 -0.0011092 -0.00096643 -0.0064236 0.0083361 -0.0072575 0.0041833 -0.0051503 -0.0094765 0.0085677 0.0075542 0.0022019 0.0033037 -1.2388e-06 
deodorant__label__department_store 0.00072652 -0.0067321 -0.0060093 -0.0097748 -0.0038694 -0.0085146 -0.0058806 0.0064473 -0.0035702 -0.0072106 0.0097649 0.0070774 -0.0076843 -0.0079785 -0.0089437 0.0034667 -0.0041491 -9.6791e-05 0.007394 -0.00084613 0.0029524 0.0048833 -0.00026268 -0.0066217 0.0037141 0.0081755 0.0072437 0.0055484 0.0097137 -0.000457 0.0021376 -0.0065284 -0.0009945 -0.00061833 0.002157 0.00047381 -0.0017522 0.0013384 0.0033194 0.0049162 0.003089 -0.0052028 -0.0075537 0.0036582 0.0029062 0.0089953 0.0013347 0.0070683 0.0096897 0.0094556 -0.0064653 0.0096178 -0.0088203 0.0045972 -0.0077906 0.0047354 -0.0023384 -0.0078725 0.0067987 -0.003313 0.0082344 0.0015959 0.0083294 -0.0084523 -0.0072636 0.0099401 -0.0038214 0.0051662 -0.0088287 0.0016818 -0.0088866 -0.0083046 -0.0089397 -0.0055569 -0.005015 0.0031216 -0.0050357 -0.0015245 -0.00030225 -0.0088114 -0.0095391 0.0087049 -0.0069135 -0.00023914 0.0080802 -0.0089127 -0.0040176 -0.0032848 0.0054542 -0.0030285 -0.007383 0.0013498 0.0019649 -0.0087776 0.0043351 0.0047898 0.0090604 -0.00023608 -0.0064631 0.0074188 
tape__label__book_store -0.00026583 0.0064734 -0.0059358 0.0007833 -0.006473 0.0061074 -0.0067866 -0.0053829 -0.0022878 0.0093009 -0.0037253 -0.0032889 -0.0087333 -0.0056439 -0.0031454 0.0035312 0.0040008 -0.0034627 -0.0050238 -0.005751 -0.0062041 0.00087741 0.0060311 0.0076293 0.0070117 -0.0027928 -0.0022296 0.0042082 -0.0062114 -0.0042919 -0.0022159 0.0032404 -0.0036596 -0.004633 -0.0054922 0.008757 0.0017398 0.0037682 -0.0058076 0.0072493 0.0053137 0.0083854 0.006146 0.0093305 0.0028191 0.0054636 -0.0056017 0.0066454 -0.0072911 -0.00054787 0.0016475 0.0034728 0.0013456 -0.0055457 -0.0097891 0.00029036 -0.0014084 0.00060348 -0.0056254 0.0096541 0.0010161 -0.0096594 -0.0023135 -0.0045041 -0.0020025 0.0049184 0.00031453 0.0097317 -0.0024798 0.0030307 -0.0061206 -0.0036801 0.0019661 0.0082734 -0.0028483 -0.0026924 -0.0012078 0.00052847 -0.0048366 0.0036562 0.0051123 0.0076389 -0.0023938 -0.002198 -0.0063945 0.0036005 -0.0078907 0.000396 0.0031368 0.00036933 0.0014564 0.0047407 0.0092641 0.003867 0.004743 0.00085115 0.0087585 0.008172 0.0048716 0.0026229 
garments__label__clothing_store -0.0013215 0.0061599 -0.0055084 0.0029751 -0.004524 0.0044381 -0.0071587 0.0044053 -0.0043813 0.001769 -0.0035428 0.0070794 0.0055707 0.0045192 -0.0064817 0.003372 0.0042679 -0.0028074 0.0084652 -0.0013304 0.0057609 0.0027365 0.0024313 -0.0096901 -0.0092 0.0049922 -0.008967 -0.0039718 0.0076199 -0.0059345 -0.003573 -0.0021303 0.0095658 0.0021656 -0.002883 -0.0022865 0.0076888 -0.0093839 0.0033585 -0.0076551 0.0081955 -0.00057562 0.0050141 0.0044569 0.0080925 0.0040593 0.0060002 0.0089937 0.0035121 0.0074926 -0.00036649 -0.0099809 0.0048219 0.0070028 0.0051101 -0.00092499 -0.0058595 -0.0016504 0.0012836 0.0054636 0.0099638 2.5599e-05 0.0043712 -0.0048393 0.0035793 0.0074624 0.0036008 0.00026297 -0.0099975 0.0071713 0.0036874 0.0021331 -0.00028457 0.0079905 0.00615 0.0021332 0.0095105 -0.0040666 -0.009851 -0.0091889 -0.0038026 0.0012381 -0.00059575 -0.0075631 -0.0027205 -0.00029287 -0.00065639 -0.0021314 0.0071858 -0.0056337 -0.00032248 -0.00041354 -0.0013717 -0.0087385 -0.0097744 -0.0089082 -0.008152 0.0034346 0.0020264 -0.0034385 
palm -0.0031116 0.0022242 0.0054352 0.0078035 0.007474 -0.0041476 -0.008066 -0.003597 0.0094523 -0.0048383 0.0061699 0.0098671 -0.0066256 -0.0043485 0.0064442 0.0065334 0.0092326 0.0083529 0.0051305 0.0015668 -0.0066836 -0.0083693 0.0034389 0.0020936 0.0062804 0.0033484 -0.0074365 0.0082173 -0.0019782 0.0014097 0.0012286 0.009425 0.0064213 -0.0011935 0.0098921 -0.0013308 -7.3703e-05 -0.00044565 5.0313e-05 0.0077356 -0.0091822 -0.0042737 -0.0047937 -0.0082427 -0.0019807 -0.0056885 0.004204 0.0072745 -0.0036508 -0.0040071 0.0065706 0.0036239 0.0039436 -0.0030052 -0.0084436 -0.0028602 0.0041352 -0.0057982 -0.004656 0.0081617 0.0097988 0.0012643 -0.0037044 0.0059991 -0.0062546 0.0018174 0.0044381 0.0032864 0.0096375 0.0066514 -0.0058242 -0.0025153 0.0076311 -0.00024419 -0.0026352 -0.0042009 -0.0003941 -0.0058417 -0.0011927 0.0037434 -0.0045421 -0.0089992 0.0058707 -0.0014977 -0.0087736 -0.0090567 0.0063548 0.0043524 -0.0068143 -0.0081924 0.0082215 -0.0098817 0.0029721 0.0028988 0.0070986 0.0073709 0.0047461 0.0064663 0.0073976 -0.0014236 
penwiper__label__book_store 0.0018794 0.0097178 -0.0083697 0.0063743 -0.0094824 -0.0030315 -0.0078155 0.0031893 -0.0027001 -0.004154 -0.0089144 0.0093193 -0.00023747 0.0066162 0.0041684 -0.0077969 -0.0057058 0.0014436 0.0017357 0.0082562 -0.00096568 0.0040448 0.0041117 0.0054776 -0.0059993 -0.00014523 0.0014132 -0.0041933 -2.539e-05 0.0093504 -0.001282 0.0063873 0.0092515 -0.0069085 0.0054377 0.0072662 -0.0055697 -0.0034505 -0.0042159 0.0065509 0.0019996 -0.00085297 0.0043608 -0.0069282 0.0058085 -0.005276 -0.0064374 -0.0032333 2.0136e-05 0.0053785 0.0094903 0.0069701 0.0010123 -0.0096103 -0.0031682 -0.009782 0.0057367 -0.0083269 -0.0030452 -7.2617e-05 -1.0589e-05 -0.0010562 -0.0081691 0.00060966 -0.0059706 -0.0031176 -0.005522 -0.0014258 -0.0030175 -0.00070224 0.00062744 -0.0019788 -0.0057136 -0.0079005 0.0032943 -0.0093009 -0.0094302 0.0045262 -0.0082723 0.0042246 -0.00071571 -0.00018821 0.00052766 0.0099994 0.0025425 0.0054897 -0.004663 -0.0035588 0.0084945 0.0093983 0.0067471 0.00052883 0.0021325 0.0083762 -0.00089102 -0.0045982 -0.0044693 -0.005358 -0.0079767 0.0040263 
eyeliner__label__book_store 4.645e-05 -0.0058184 -0.0037455 0.0073574 -0.0010907 0.0036364 0.0053043 -0.0096332 -0.0072045 -0.00081993 0.0030734 -0.0022435 -0.0027875 -0.0073648 0.0078414 -0.0040627 0.0040484 0.0058521 0.0057652 0.0072505 0.0089303 -0.0089878 0.00087061 -0.0019295 -0.0046654 0.0046406 -0.0026587 -0.0084282 -0.0027871 -0.00070128 -0.0069573 0.0092951 0.0091908 -0.0050569 -0.0050503 -0.0096054 4.7229e-06 -0.0062414 0.00013937 0.0086759 -0.0035046 -0.001098 -0.0028339 -0.00022846 -0.0028933 0.0060593 -0.0072394 -0.008952 0.0024553 -0.0023622 0.0064092 -0.0015282 -0.0044363 0.0031641 0.0037605 -0.0074068 0.0017207 -0.0085384 -0.00089016 -0.007037 -0.00084115 -0.0039937 0.0051327 0.0010367 -0.0078157 0.0073439 0.0097856 0.0085921 0.0071974 0.0071014 -0.0082883 -0.0034522 0.0062849 0.0063427 -0.0062689 -0.0028889 -0.0088605 -0.0056244 0.0047113 0.0078206 0.0035474 -0.00024543 0.0088813 -0.0065766 -0.001574 0.0022021 0.0094215 -0.0074936 -0.0015863 -0.0052948 0.0065336 0.0058977 0.00056078 -0.001263 0.0083123 -0.0035037 -0.0053069 0.0010765 -0.0043496 -0.0036163 
quill 0.0071012 0.00045719 0.0090116 0.0067619 -0.0056497 0.0039799 -0.0060964 0.00273 -0.0060445 0.0065982 -0.0097401 -0.0061486 0.0045177 -0.0003614 -0.0045657 0.0021683 0.0055683 0.0019649 0.0059579 -0.0081893 -0.0085457 0.006117 -0.0074078 0.0047493 0.00056313 0.0077118 -0.002579 0.0035375 -0.0092107 -0.0023591 -0.0091346 -0.0035693 0.0017605 -0.0084194 -0.0074461 -0.0035852 -0.0027164 -0.0030341 -0.0010376 0.0079877 -0.0050986 -0.0071218 0.0075667 0.0039939 0.0059194 0.0053343 0.0056075 -0.0089865 0.00073634 0.0066566 0.0067543 0.0084545 -0.0094615 0.0018588 -0.0026538 0.00080946 -0.00056532 -0.0098798 0.00034087 0.00068095 0.0092915 0.005255 -0.0098147 -0.0045382 0.0086275 -0.00030453 -0.0071959 -0.0051538 -0.00057665 0.0051228 -0.0095138 -0.0083745 0.0058044 0.0042555 -0.0048876 -0.0040817 0.0087053 -0.0058803 0.0083594 -0.0096039 0.0045043 -0.0038834 0.0011303 0.0072098 -0.0011879 0.0054027 0.00051486 -0.0046271 0.0048561 -0.0098105 -0.0096966 0.004074 -0.0014241 -0.0013122 0.0071301 0.00078994 0.0065855 -0.003643 -0.0091185 -0.0059728 
whiteboard__label__book_store 0.0085423 -0.0015148 -0.0078354 0.005969 -0.0033319 -0.005169 -0.0030148 -0.004272 0.007654 -0.0090997 -0.00074974 -0.0057236 0.0079837 0.0022152 -0.0014138 -0.0040696 0.0087528 0.0035807 -0.007526 0.0033628 -0.0010746 -0.0033949 0.0016268 -0.0081732 -0.0058095 -0.00041633 0.0033959 0.0031672 0.0073101 -0.0067928 0.004646 0.0078114 0.0095443 -0.0084162 -0.0095575 -0.0043858 -0.0059858 0.006729 -0.0080815 -0.0060483 0.0083685 -0.009162 0.0088748 -0.0007164 0.0016435 -0.0065961 0.0034418 0.0085284 -0.0092086 -0.00067749 -9.4315e-05 0.00037095 0.00057491 0.00099662 -0.001131 -0.0085291 -0.0060358 -0.0066539 -0.0060929 0.00014117 -0.0050739 -0.0023225 0.0036748 -0.00092721 -0.006425 -0.0038041 -0.00028935 -0.0075837 0.0021964 -0.0085297 -0.0075901 -0.0076254 0.0077298 -0.0061011 0.0026997 -0.0041038 -0.002931 -0.0062827 -0.0081503 0.003108 0.0083017 0.0064611 0.0079081 -0.0038597 -0.0036506 -0.0085858 -0.0056039 0.0033633 -0.0074665 0.0085625 -0.0043937 0.0088063 0.0049435 -0.0013578 -0.0052994 0.0062417 0.0059988 0.006254 -0.0015178 -0.0058753 
light__label__electronics_store -0.0083399 -0.0085674 -0.0095933 0.0055078 -0.0093656 0.0074371 -0.0011349 0.0050844 -0.0090772 0.0038376 0.0021487 -0.0067086 -0.0098346 -0.0087625 -0.00061295 -0.0042047 0.0093122 0.0025395 0.0073834 -0.0080227 -0.0092055 -0.0060727 0.00090372 0.0015856 -0.0015116 -0.0098691 0.00049405 0.0056934 -0.0059071 -0.00080835 0.0069741 -0.001917 0.0079529 -0.0016164 -0.00061624 0.0013336 0.0099834 -0.00077334 0.00050449 -0.0067876 -0.0037494 0.0085001 -0.0052521 -0.0046069 -0.004947 0.0024974 0.0059467 0.0058004 -0.0069334 -0.0063981 -0.0076765 -0.0082946 0.0074271 0.0058894 0.0080915 0.0067587 0.00032606 -0.0016142 -0.001969 0.0026733 -0.0019364 0.0069868 0.0019599 0.0059522 -0.0047496 -0.0070488 0.0079313 -0.00085677 -0.0059248 -0.0051069 0.0049876 0.0065845 -0.0029488 -0.0082581 -0.0069923 0.0085645 0.0099569 0.0045899 -0.0067348 0.0052481 0.0043863 -0.0088307 -0.0047216 0.0094077 0.0088098 -0.0027217 -0.0096778 0.00022863 0.00274 -0.0089398 -0.0093077 0.0021227 -0.00096625 -0.0024848 0.0032539 0.0053976 0.00018219 -0.0070137 -0.0055974 0.0017098 
dictionary__label__book_store -0.0082572 -0.0026459 -0.0072444 -0.0087308 0.0062027 -0.0065421 0.0052613 0.0046113 -0.0055954 -0.0059877 0.00026728 -0.006576 0.0020408 0.00059322 -0.0062448 -0.0084906 0.0032297 -0.0080655 0.0012994 0.0065923 0.0050973 0.0057322 0.0029739 -0.0033065 0.0089775 0.0013768 -0.0081479 -0.0085376 0.0010474 0.0076004 -0.00094739 0.0068908 -0.0086539 0.0011658 -0.00077761 -0.0047975 -0.009283 -0.0016304 0.0065175 0.009224 -0.003174 -0.0029072 0.00054452 -0.0024917 -0.0099833 -0.0084035 -0.0022119 0.0022141 -0.007099 0.0024437 0.0052687 -0.0015465 -0.00078318 -0.0033109 0.0098679 -0.0037632 0.0011068 -0.00035944 0.0014289 0.0060019 0.0089073 0.0041408 -0.008359 -0.00078511 -0.0042536 -0.0038175 0.005857 -0.0075553 -0.0062417 -0.0029123 -0.0074339 0.0038423 -0.00053554 0.0011001 -0.0015798 0.0069542 -0.0055209 -0.0049245 0.00038533 0.00084351 -0.0051592 -0.0018383 -0.0036235 -0.0093543 -0.0052016 -0.0032913 0.0056759 -0.0098541 0.0021739 1.8073e-05 0.00087816 0.006782 0.0096093 0.0088254 0.00036836 0.001242 0.0004854 -0.0030689 -0.00034558 -0.0021339 
orange 0.0023585 0.0081884 0.0088005 -0.0079404 -0.0083111 0.0088056 0.0039493 0.009474 -0.0026423 -0.0012104 0.0066348 -0.0036352 0.0029125 -0.0092578 -0.0064986 0.0086435 -0.0058476 0.0057609 -0.0010593 0.006826 -0.0028776 -0.0091183 0.0090315 0.0050554 0.0080749 0.0055219 -0.009053 0.0013172 -0.0075466 0.0038523 -0.0075547 -0.0013014 -0.0080931 -0.0016369 0.0023128 0.0092189 0.0086482 -0.0049037 0.0095416 0.0091062 -0.0044993 0.0015435 0.0020923 0.0090055 0.0030589 0.007003 -0.0028229 0.00175 0.0034341 0.0056567 0.0038396 0.0044926 0.0097815 0.0070439 0.0092207 -0.0046284 -0.0045697 0.00623 0.00059375 0.0047694 0.0023354 -0.0099303 0.00041108 -0.0089541 0.00017379 -0.0053432 -0.0061425 0.0062952 -0.0033829 -0.0078376 0.0014922 -0.0096049 -0.0047417 -0.00040594 -0.0098322 -0.0046485 -0.006762 -0.000275 0.0061736 0.0062991 0.00228 0.0004873 0.0061911 0.0082163 0.0066899 0.0044397 0.0054965 0.0053191 0.0079034 0.0032662 0.0035369 0.0088619 0.0030362 -0.0096002 -0.0061361 -0.00040807 -0.0053725 -0.0047458 0.0047729 -0.0028564 
water -0.0062384 -0.0010563 0.0037242 0.00033867 0.0079196 0.00072473 -0.0095666 0.0064044 0.0069868 -0.0022478 -0.00035993 0.0012359 0.0056975 0.0094516 -0.0073523 -0.0071514 -6.7189e-05 -0.0035535 0.00027179 -0.0096741 -0.0074499 -0.00080416 -0.0025545 0.0081896 -0.0091354 -0.0020494 -0.0093729 0.0010404 -0.0080621 0.0088174 0.0018721 0.0025924 0.009381 -0.0040251 -0.00036773 -0.0037656 0.00061901 -0.0060092 -0.0086322 0.0099303 -0.005513 -0.0045425 0.0084448 0.0014627 0.0015317 8.1374e-05 -0.0051911 -0.0028651 -0.0011973 -0.0083918 -0.00082134 0.001226 -0.0078598 -0.0068307 0.0091205 -0.0046037 0.0029328 0.0063138 0.0050637 -0.0061051 0.0078734 0.001088 0.0069393 0.0040487 0.0076815 0.0038003 -0.0026519 -0.0021141 -0.008256 -0.0084002 0.0071284 0.0095093 0.001563 0.0099366 0.0031345 -0.003299 -0.0052196 -0.0011458 0.0028515 -0.0088677 -0.0031725 0.007423 -0.0082787 0.0040129 -0.0057342 -0.0019871 -0.00329 0.0060189 -0.0053959 0.00081071 0.0052261 -0.0063834 0.0047961 0.003046 -0.0078626 -0.0097989 0.0054392 -0.0066001 0.0055698 0.00092302 
magic -0.0078647 0.0067207 -0.00035966 -0.0031364 -0.00977 0.0070065 -0.00079116 0.0036249 0.003376 0.0097447 -0.0099455 -0.0065781 0.0026321 -0.0098295 0.0091306 0.0074082 0.0096775 -0.0077977 -0.0014008 0.0063317 0.0081827 -0.0095779 -0.00056046 -0.0031451 -0.0091972 -0.0034168 0.0091095 -0.0028926 0.0010226 -0.0002843 0.0091883 0.0027255 -0.0063375 0.0016356 0.0027149 -0.0099645 0.0062386 0.0073539 -0.0014229 -0.0054702 -0.0040821 -0.0093221 -0.0026407 -0.0059899 -0.0071826 0.0078955 -0.0023035 -0.0056068 -0.0068193 0.0068165 -0.0094361 -0.00093274 0.0014155 0.0066661 -0.0065706 -0.0073318 -0.0030121 0.00075766 -0.0061813 0.0042913 -0.007065 -0.0036516 0.0038085 -0.008854 -0.00087292 0.0024739 0.0049071 -0.0071899 -0.0086029 -0.001756 0.00025007 0.0092705 0.0059593 -0.0026125 0.0036251 0.0029365 0.0058824 -0.0038621 -0.0005225 -0.0084239 0.00034106 0.0048099 -0.0047858 -0.0062633 0.0043791 0.00059966 0.0023925 -0.0096366 -0.0082971 0.0060542 -0.0096192 0.0052876 -0.006229 0.0079215 0.0074818 0.0072355 0.00030891 0.0015878 -0.0044731 0.0068952 
bath__label__department_store -0.0089782 0.0026001 0.0021459 0.0097959 0.0072634 0.0036017 -0.0097368 0.0060533 -0.0019036 0.0043443 -0.0083531 -0.0068045 0.009871 0.0019582 -0.0090659 -0.0097669 0.0031516 0.0067822 -0.0052786 0.0023548 -0.0088221 -0.0065597 0.009141 -0.0062696 -0.0020332 0.0047855 0.002855 -0.0072416 -0.006335 0.0090987 -6.7585e-05 -0.0041288 0.0090085 -0.0080422 0.0050218 0.0023145 -0.0019155 -0.0015523 -0.0024627 -0.0048982 0.0042908 0.0030471 -0.00638 -0.0020188 0.0042314 -0.00082911 0.0044181 -1.5942e-05 0.00073702 -0.0067924 -0.0060803 -0.00015385 -0.0079695 0.0050053 -0.0072528 -0.00021687 0.0030095 0.0070166 -0.0073678 -0.0044363 -0.0063745 -0.0041268 0.0048319 0.0013807 0.0087931 0.0037588 0.0030572 -0.0077903 0.0046965 -0.0017688 0.0071546 0.00083377 -0.0040832 -0.0062915 -0.00459 0.0098714 -0.0030794 -0.0036395 -0.0072135 0.0022917 -0.0089945 0.0062689 0.0084109 0.0065043 0.0084359 -0.0098689 0.0074611 0.0026425 4.7283e-05 -0.0052136 0.004909 0.0092059 0.0027837 -0.0032458 -0.0040755 -0.00066649 0.0096863 -0.0074855 -0.0011186 0.0091738 
beer__label__department_store -0.0083837 -0.0092401 -0.0083108 0.0053204 0.0061114 0.0078139 -0.0069969 0.0075398 -0.0019841 0.00084937 -0.00063749 0.0074956 -0.0052721 -0.0029504 -0.00084179 0.0017503 0.0060136 0.0065 -0.0014019 -0.0095666 -0.009623 -0.00044891 0.0068406 0.0062294 -0.0080248 -0.0093704 -0.0037945 0.0082744 -0.0034822 0.0010069 -0.0031209 0.0066677 -0.0033568 -0.00044288 -0.0029246 0.006919 0.0037686 -0.001322 -0.0012537 0.0076605 0.0041735 0.00082539 -0.00041982 -0.0035314 0.0045025 -0.0061977 0.0032098 -0.0069711 0.004652 0.0097514 0.0067289 0.0094831 -0.0036936 0.0070987 -0.0029382 -0.00955 -0.0024636 -0.0089942 -0.0043357 -0.0053711 -0.0036363 -0.0022586 0.0024304 -0.004269 0.0037531 -0.0069764 0.0064432 0.0021788 -0.0072204 -0.0043453 0.0073682 -0.0026812 -0.0041556 0.0052544 0.0060421 -0.0060354 0.0046333 -0.0071524 0.003642 0.0064707 -0.0081569 0.0058971 -0.0043059 0.0025233 -0.00049164 -0.0042888 -0.0098871 -0.0072138 -0.0030411 0.0028379 0.0036971 -0.0093666 0.0064225 0.0084531 0.0096682 -0.00064173 -0.0077129 -0.0086824 0.0064418 0.0084085 
mineral 0.0076864 -0.0041934 0.0087109 0.0044885 -0.0054291 -0.0053156 -0.0086464 0.0049767 -0.0027198 -0.0042841 0.0074144 0.0026636 -0.0087331 -0.0090534 0.0065716 0.0061235 -0.0030232 -0.0054519 0.0059222 -0.0078915 0.0072837 0.0040597 0.0012895 0.00024643 -0.001984 -0.0030732 0.0089684 -0.0023876 -0.0089718 0.0070235 -0.0098033 0.00091087 -0.009852 -0.0098621 -0.0092786 -0.0090638 -0.0067812 0.0023123 0.00087422 0.0053299 0.00043127 -0.00057851 0.0055301 -0.0076287 -0.004699 1.2666e-05 0.0036709 0.0026459 0.0064533 -0.00010023 -0.0046618 -0.0010991 -0.0017881 0.0079575 -0.0009361 -0.0052675 -0.0021035 -0.0097452 -0.0044312 -0.0028388 0.0094791 -0.0035565 0.0039591 0.0019408 -0.0090403 0.0057797 0.0052839 -0.0038333 0.0042898 -0.0014873 0.0073734 0.0081017 0.0040688 -0.0039368 -0.005174 -0.0023766 -0.0092122 -0.0063762 0.004985 -0.0080205 -0.007482 -0.007124 -0.0073368 0.0071401 0.0045623 -0.0050423 -0.0046867 0.0079736 0.0083851 -0.0034538 -0.0058236 0.0031864 -0.0096449 0.0028802 0.0046993 -0.0064464 -0.00044351 0.0027315 -0.0087369 -0.001708 
light -0.00020165 0.004444 0.005204 -0.003371 -0.00078205 -0.003718 -0.0073036 0.0094298 -0.0031933 -0.0033879 -0.0077452 0.0026799 0.0014772 -0.0018392 -0.0083214 0.0003075 0.0097266 -0.0060779 -0.0040842 -0.0020589 0.0079349 -0.0082195 -0.0075607 -0.00022031 0.0083772 -0.0036017 -0.0040207 -0.0065278 0.0082444 0.0087062 -0.0050282 -0.00025631 0.0038583 -0.0029942 0.0051061 -0.0032029 -0.0042221 -0.00075062 -0.00039347 -0.0084347 -0.0019737 -0.0070264 0.00060798 -0.0023011 0.0094827 0.0031408 0.0094815 -0.00015492 0.0081901 -0.0062728 0.0057627 0.0022576 -0.00911 -0.0030994 -0.0014485 0.0044889 0.0045488 0.0028988 -0.0046199 -0.00317 -0.0012854 -0.0028732 0.0062312 0.0039834 0.0070887 0.002737 0.001772 -0.0066619 0.00070803 0.0065986 0.00035224 0.0066942 -0.00066451 -0.00016665 -0.0012939 0.0084901 0.00033934 0.0068984 -0.0047837 -0.0012806 0.0035651 -0.0054998 0.0038709 0.0039968 -0.0060974 0.0098609 0.0020665 0.0030476 -0.0066592 0.003019 0.0057925 -0.0028327 0.0077399 -0.009578 0.0075044 0.0083959 0.0083105 -0.0065223 0.00059291 0.0053553 
